<?xml version="1.0"?>
<opencv_storage>
<facial_ann type_id="opencv-ml-ann-mlp">
  <layer_sizes type_id="opencv-matrix">
    <rows>1</rows>
    <cols>3</cols>
    <dt>i</dt>
    <data>
      29 40 7</data></layer_sizes>
  <activation_function>SIGMOID_SYM</activation_function>
  <f_param1>5.9999999999999998e-01</f_param1>
  <f_param2>1.</f_param2>
  <min_val>-9.4999999999999996e-01</min_val>
  <max_val>9.4999999999999996e-01</max_val>
  <min_val1>-9.7999999999999998e-01</min_val1>
  <max_val1>9.7999999999999998e-01</max_val1>
  <training_params>
    <train_method>BACKPROP</train_method>
    <dw_scale>1.0000000000000001e-01</dw_scale>
    <moment_scale>1.0000000000000001e-01</moment_scale>
    <term_criteria><epsilon>9.9999999747524271e-07</epsilon>
      <iterations>1000</iterations></term_criteria></training_params>
  <input_scale>
    1.1717295859625114e-01 -3.9285512591234379e+00
    4.7933471929077265e-01 -8.3518631369734511e+00
    4.6331304702024945e-01 -8.3555596208878722e+00
    1.5626630912985276e-01 -8.3514144349277117e+00
    6.8450967181527891e-02 -6.8816247881508099e+00
    6.6415948509318645e-02 -7.6686938868012193e+00
    7.2361316756697797e-02 -8.5879858830963318e+00
    4.4037469711269227e-02 -6.5166961453335750e+00
    4.2928164827628207e-02 -8.0098940905212181e+00
    9.1229542404324016e-02 -5.1570154282866181e+00
    1.1685144942164319e-01 -8.5998446901102703e+00
    8.7649658128340038e-02 -5.3490096923940831e+00
    6.1055319602513619e-02 -7.7087288054479322e+00
    1.5005378142055123e-01 -6.7315120672108746e+00
    8.1042093683560495e-02 -8.6564614145930339e+00
    5.2724575603045706e-02 -8.0786972952763865e+00
    2.3121531037300630e-01 -7.7296341321058764e+00
    1.3652538985758672e-01 -5.2259842784012331e+00
    1.2634589663820442e-01 -7.5811494967676829e+00
    2.1186803729893469e-01 -8.0843358630319795e+00
    1.1685144942164319e-01 -8.5998446901102703e+00
    1.0356062944353286e-01 -8.6573954967127786e+00
    6.0317180474755849e-01 -7.7975706098558542e+00
    1.3112072227780397e-01 -8.7458375385356995e+00
    1.1980711757432920e-01 -6.0250845072622834e+00
    1.1931457348439389e-01 -4.0778665200027264e+00
    1.1572004494750188e-01 -5.6861317054823832e+00
    1.0466744324340527e-01 -4.6822528654978619e+00
    1.5685220759990456e-01 -7.3448519680948099e+00</input_scale>
  <output_scale>
    1. 0. 5.2631578947368418e-01 4.9999999999999994e-01
    5.2631578947368418e-01 4.9999999999999994e-01 5.2631578947368418e-01
    4.9999999999999994e-01 5.2631578947368418e-01 4.9999999999999994e-01
    5.2631578947368418e-01 4.9999999999999994e-01 5.2631578947368418e-01
    4.9999999999999994e-01</output_scale>
  <inv_output_scale>
    1. 0. 1.8999999999999999e+00 -9.4999999999999996e-01
    1.8999999999999999e+00 -9.4999999999999996e-01
    1.8999999999999999e+00 -9.4999999999999996e-01
    1.8999999999999999e+00 -9.4999999999999996e-01
    1.8999999999999999e+00 -9.4999999999999996e-01
    1.8999999999999999e+00 -9.4999999999999996e-01</inv_output_scale>
  <weights>
    <_>
      -1.2975002987054999e+01 5.8894206244973946e+00
      -3.1722059335513619e+00 2.0808399406961424e+00
      1.0400394309193595e+00 -3.0790040295022014e+00
      3.9252105856634206e-01 1.7136159662994683e+00
      -5.9779589183477211e-01 7.5235567756893629e-01
      3.7787382894534498e+00 -2.2357942343445734e+00
      1.8047452242628175e+00 -8.8669035523758080e+00
      -1.6341845897954093e+00 8.6724550721402249e-01
      1.6940894896113843e+00 -5.9884877989162255e-01
      -7.9729511747115323e-01 1.6006956034903834e+00
      1.9984924287433332e+00 -3.3971084320743068e+00
      6.9227829238828176e-01 -2.7039910775760174e+00
      -4.6330215813659939e-02 1.4764907141287613e+00
      -3.5245617535380869e-01 1.8654063398048366e+00
      6.2078930454127668e-01 -4.7361857156007092e-01
      -1.7803253545635900e+00 2.6323470677674563e+00
      -3.0234776829804315e+00 7.9097081386915524e-01
      9.0181277753628486e-01 2.7166239364836042e+00
      -2.1362277083982137e+00 3.0075091525354321e+00
      1.1443265932647111e+00 1.4331917434079884e+00
      -5.2320256338683446e+00 -6.6018875445305314e-01
      1.0915235548201700e+00 -4.0039660833011820e-01
      1.8604985540478709e+00 -1.4231841224794877e+00
      1.3753726569847013e-01 7.1676305711322685e-01
      1.0720229559938526e+00 4.8583600876707350e-01
      -4.7746308129185805e-01 1.1522144562312635e+00
      -6.5947841194829127e-01 -8.2438573880592503e-01
      -3.6178038990606365e-01 -1.1408575021789802e-01
      -9.5084773342133477e-01 -2.6423899224908327e+00
      1.6405954459598606e+00 -2.6708456843106876e+00
      -5.8758093453780080e-02 3.4058012462036949e-02
      1.6536599463997268e+00 -1.8310732650062818e+00
      1.2833101432110485e+00 7.0980611842623098e-01
      1.1964322077623040e+00 -2.2009116605626895e+00
      4.4623607025669437e-01 -1.6443676350630583e+00
      1.7823519373315133e+00 9.8438741790451467e-01
      1.4060239683835121e+00 -1.5675256850808195e+00
      -1.0221378344075243e+00 1.2159613914851828e+00
      3.0081752518891696e+00 -1.4625863098404646e+00
      7.1534546787048892e-01 -4.4123483846334730e-02
      4.8458854588318084e-01 -1.3309229845319372e+00
      -3.7650113124379303e-01 -9.9022827520692178e-02
      2.1267126531794784e+00 -1.2346439465910406e+00
      1.3281473781153323e+00 -5.2939755478391926e-01
      2.7526352219479966e-01 9.1657809239947474e-01
      2.1713156013243223e-02 -7.4471603120573238e-01
      1.1272385720792810e-01 1.4475471300698972e+00
      3.6566771717132307e-01 1.2357686734316777e+00
      1.0255387921652739e+00 -9.0440472438184649e-01
      8.3677456340696255e-01 -5.9361765069576378e-01
      1.2114539958084154e+00 -5.8797325349740581e-01
      1.4801752016847625e+00 -5.3449263706887895e-01
      5.9050026941059475e-01 3.1106616248097518e+00
      -2.2655402988901913e-01 -2.6432484436690098e+00
      8.9720786045099910e-01 -1.5242577240420623e+00
      1.1682366203082940e-01 1.8387920938926912e+00
      5.6802056356440134e-01 -3.2815173570103479e-01
      -6.4494923317346342e-01 2.2612063522719859e+00
      2.3284334945522307e+00 -4.4822284717054639e-01
      -1.7429669552705482e+00 1.2896055002067346e+00
      5.5652082462532626e-01 -1.7810600122084337e+00
      -8.5638488166527715e-01 3.0716678737239156e-01
      2.5101646930805299e+00 -4.0578786622431118e-01
      2.1506082295675162e+00 -7.0239504296245470e-01
      -4.1032122022068490e-02 9.3554284953849298e-01
      6.3340842558422834e-03 -1.5064878782287818e+00
      2.8434163653812594e-01 2.8166414940144229e+00
      3.7474767560841787e-01 2.3661298019764727e+00
      1.5452889722912500e+00 4.1262466932317846e-02
      1.0195201645098475e+00 6.1511908261580284e-01
      1.2362953242658898e+00 -1.1701088313594710e+00
      1.6674051145385933e+00 -1.1408449455949327e-01
      7.2661578787659142e-01 4.0754888279685328e+00
      -8.0790876806351553e-01 -2.5007250002221393e+00
      1.0215316313629812e+00 -1.3409362831269216e+00
      -7.9096898859966380e-01 2.3737984322884329e+00
      -3.3859950826827706e-01 2.7694587228168704e-01
      -4.8070354877790616e-01 2.7295511274918423e+00
      1.1858012447405109e+00 -3.0072899535301556e-01
      -2.6855993995119549e+00 1.9328621967031956e+00
      7.8492201131314951e+00 2.4012089826768284e+00
      2.3650986564913037e-01 -1.6871802796397981e+00
      -8.3817955952802381e-01 -3.1706725526012653e+00
      -2.9297417229731972e+00 -1.3312577969423676e+00
      1.1613161759616268e-02 1.6196867291267059e+00
      3.3663088222459914e+00 1.0763943332171821e+00
      -1.0846080199845090e+00 2.1843893116154240e+00
      2.3401344481724409e+00 -2.2901810398024223e+00
      3.2799366927708529e-01 -6.0013213040157176e-01
      -7.5476737125577498e-01 -3.2465449115837259e+00
      5.7878062637955507e-01 2.0480100180758596e+00
      -6.8472708317793884e-01 1.2054627430518896e+00
      3.1621127162291918e-01 -2.6053596435999045e+00
      -5.5591352823478879e-01 2.9491484715401139e-01
      -2.8507195257715162e-01 -2.1438783268133634e+00
      -3.1951018697112310e-01 -2.4544324283335484e+00
      3.1635149800875864e+00 -5.3934292361586209e+00
      1.0958386601835339e-01 -1.5899579756304663e+00
      1.3814258148977296e+00 1.6051295017182519e+00
      -3.5373094011587131e-01 2.3774852760008028e-01
      1.7137740037714522e+00 7.2059249268819270e-01
      -8.5037964265678323e-01 -1.1249367164450004e+00
      2.5984787672812987e-01 -9.5849455351179413e-01
      -1.3444377234042681e+00 -9.8819029250433565e-01
      -2.7630042288300855e-01 4.7802956395251522e-01
      1.2825927872617613e+00 5.0804494780066420e-02
      2.6683921573873376e-01 -1.2756692327853328e-01
      -4.1115956112258290e-01 -1.0643957681286940e+00
      1.1173193363349203e+00 -5.5930745637269874e-01
      -4.6455751581091463e-02 -1.1215198780355955e+00
      2.7397837340575387e-01 1.1780739834866488e-01
      -6.3179800305530742e-01 1.2470045130033371e+00
      6.2970800621009615e-01 2.3316934808506032e-01
      -3.8607924188130316e-01 2.2010723936012500e-01
      -6.9792802765302100e-02 -1.0448359729304131e+00
      -1.4280522288941433e+00 -4.5655667376622522e-01
      1.9092583847772320e+00 -1.3191111786067991e+00
      2.6866060301345690e-01 -3.6104255032654264e-01
      8.8904109698603566e-03 9.6223452117331121e-01
      -7.6584576366433732e-01 9.5864536659367572e-01
      -5.9040826209218960e+00 -8.4720136892858644e-01
      -1.8804852873568669e+00 2.6260892209719355e-01
      -9.0417112131972524e-03 1.9105065439347244e+00
      1.0319025515286848e+00 -3.6958272893849548e-01
      4.2223572568486761e-01 -3.2477365847073059e-01
      -1.4316580875382718e+00 -2.0438992446732202e-01
      2.1713528612232715e+00 -1.8661715553027518e+00
      -2.4155330889737692e+00 -1.0293739662081902e+00
      -4.2849553508360325e-02 3.3972059258061754e-01
      2.1085734734143209e+00 2.4248100274244896e-01
      -8.1874965102984332e-01 -2.0698252425920249e+00
      -2.8137415499014989e-01 2.0973892871485880e-01
      1.0710135644253056e+00 2.4148022989885312e+00
      1.0996312952194114e+00 8.2409170431499990e-01
      4.0781507131323719e-01 8.4220662617436104e-01
      -1.7852901414462130e+00 2.2746488437946617e+00
      1.1512431707286814e+00 8.6056725816172974e-01
      -2.4401579654735620e-01 -1.5119859879946221e-01
      -1.6758062579958859e+00 -1.3106022619267164e+00
      8.0364125526173080e-01 3.4285676275656712e-01
      -7.3063277154988907e-02 1.0344297215470855e+00
      2.6732381709243208e-01 -1.3348569300797712e+00
      -1.4371178671592799e+00 -8.0002989992561824e-01
      2.2561054593315979e+00 1.8308901607102340e-01
      1.1111281364770915e+00 1.6667591919846334e+00
      -1.7450800180927746e+00 1.1596379309642957e+00
      -6.7207375983747275e-01 5.0662011719405464e-01
      4.0210386762488612e+00 5.8049655886960361e-01
      -2.8764380871776378e+00 2.2908977809861022e+00
      1.2794200870115584e+00 -1.1162935519604722e+00
      7.7011313309081220e-01 3.8532527598301600e+00
      9.7324009212697704e-01 -1.6857805630325957e+00
      -5.6760667731004011e-01 -5.1846878177443556e-01
      3.0667287283231373e+00 1.9152290593980517e+00
      7.5305954589612745e-01 -1.3311505031949242e+00
      -2.4543825650148277e-01 3.2535281377379682e-01
      -2.0501219249670291e+00 -4.2749118735407512e+00
      1.7509660397985878e+00 -1.1803554348555212e+00
      1.3389711862659084e+00 -2.2842924066903492e+00
      -2.8026819912418639e+00 4.5307862010167504e-01
      -4.3163709482720911e+00 1.6442729274645334e+00
      -1.3757207275189163e+00 -4.9131429589589467e-03
      -2.4198161307438629e-01 -1.0575895652756662e+00
      1.0887701628439301e+00 4.6243167326691559e-01
      7.3039551334015906e-01 2.0215240502535692e-01
      6.3762129926614297e-01 -5.7163038228851992e-01
      6.2242498932996226e-01 -1.6011421514605941e+00
      -1.0219033998447973e+00 2.5029402410407253e-01
      -2.5755050312506356e-01 5.9154334559137178e-01
      1.1288689668987451e+00 1.3887085458526233e-01
      -1.5899041770554992e-01 7.3380473410258135e-02
      2.6118590301965222e-01 -6.4965929054817628e-01
      9.8448744026685731e-01 1.0190370020726527e+00
      -6.2000567857072711e-02 1.8425469842819266e+00
      -3.3671818598313086e-01 -1.2925746597379841e+00
      -7.6202169520861085e-01 1.0455406824015754e+00
      -1.7134195023890705e-01 9.0452901822656129e-01
      1.7543135643111704e-01 9.1126583117880966e-01
      -1.4191808220198474e+00 9.4571483017221170e-01
      -2.6745558412189091e-01 8.8507791104373768e-01
      -3.3600344563146196e+00 3.8843592561674445e+00
      1.6533313308493214e+00 -1.1628289601891979e+00
      -4.9832848166492522e-01 -1.6722295054641401e-01
      4.4986155075150157e-02 9.6952228681285235e-01
      1.1738314098433720e+00 9.9043021111521390e-01
      2.3375053662158329e-01 4.0707793823597355e-01
      -2.8464487161543656e-01 -3.6294615302210689e+00
      3.5699344765504608e+00 1.6400954039384499e+00
      -3.0925997667645427e-01 -4.5926939968549102e-01
      -7.4165781048691770e-01 -5.5033710361407884e-01
      1.0225484352333594e+00 2.7087413876799298e+00
      -4.5971931159294427e-01 -3.0109865464180028e+00
      -2.0387315621300681e+00 -1.2751206261242378e+00
      1.1428987537144715e+00 2.2964431843828570e+00
      2.2709909412869403e-01 -2.1181443868999263e+00
      1.9577142882222948e-01 -1.1953537255557933e+00
      -4.3538521955813527e+00 -1.2130599498968397e+00
      8.9959498772468904e-01 1.1177023695899213e+00
      6.9016052030272512e-01 6.3707398606833332e-01
      -1.0889359605825211e+00 1.5279226286043117e+00
      -1.9476575801817195e+00 -1.6151698755798710e-03
      -2.3786572299743408e-01 -5.5069536532762631e-01
      7.0968294183145830e-01 2.4458572693752681e-01
      1.3584147335355878e+00 -1.5577104851914780e+00
      1.1902809736310440e+00 2.7160947774603184e-01
      1.9624370599134300e-01 8.1938149091897272e-01
      1.9553296406807454e+00 1.2234403066141122e+00
      -1.0190202528706855e+00 -6.1876196658834082e-01
      4.7974355881463449e-01 1.0763318745963886e+00
      5.0908276109719475e-01 -5.3402925480840202e-01
      -2.6769228888147700e-01 -1.4802998056269876e+00
      -4.6550351554799829e-01 1.2119025863166382e+00
      2.0968295906706262e+00 1.6555749370396435e+00
      -2.0185814869972857e-01 1.3632302919391132e-02
      -1.6760186537534225e+00 -5.4106099022590182e-01
      -1.8674292121872029e+00 1.4587182259370119e+00
      9.3300148546446571e-01 -2.8529704038859671e-01
      -6.3798647163463063e-01 -8.4350998544738143e-01
      1.9282905727821242e-01 7.7199368884170083e-01
      1.0959155780812292e-01 5.6349060310023458e-01
      -2.0030011569758597e+00 2.7189992405597003e+00
      5.0715326974974684e-01 3.1201919816815198e+00
      3.2213039942300487e-01 -3.0597822356898732e+00
      -4.0460950575288592e+00 2.9898248323990968e+00
      -2.5555220614067425e-01 -7.3034338470624605e-01
      4.7801060326375850e+00 4.7229243965864887e-01
      1.5570157386381691e+00 -3.3005996744710055e-03
      -2.4805453473284627e+00 -2.2387729104617682e+00
      1.9914460424983005e+00 -4.4732639432846772e+00
      7.7703802874213002e-01 1.2635274549492140e-01
      -2.7893779820849209e+00 -4.4399764593079238e+00
      -2.2893373291501265e-01 2.6235032620189619e-01
      9.5086537654296377e-01 5.1132075422590062e-01
      -2.7875245309103596e+00 -7.1195775362835767e-01
      5.6867557737314989e-01 -1.6794270958913635e+00
      8.8376232544906141e-01 2.0461413320581856e-01
      3.6492644179234359e+00 4.0578449006823263e+00
      -4.9371267747832306e+00 1.0460652253044589e+00
      -1.8557690589217568e+00 2.0950974234930682e+00
      5.1368375481651771e+00 -3.4565008189656843e-01
      -1.3901363076649196e+00 3.0017885422864974e+00
      3.0482211544836846e-01 -9.7259313808890113e-01
      -2.4581296602965552e-01 -3.8823278532789218e-01
      1.0196243383693935e+00 -9.5284240598760617e-01
      1.1751603120282650e+00 1.0069622196139447e+00
      7.7034179827074400e-01 3.1148075222789401e-01
      1.1272927107859887e+00 -4.7237351094445290e-01
      1.8825535405848071e+00 4.0643718251968342e-01
      1.2999082073131021e-01 7.9292105370742361e-01
      -1.1624759361195103e-01 -9.1678895595987153e-01
      1.2993895671605515e+00 1.2528215248166943e+00
      -6.3402595083246815e-01 -8.3730909731348790e-01
      -3.2705470729409303e-01 -1.8775205406095462e-02
      2.6550486458459938e-01 1.2234865126217298e+00
      -5.4895504507602111e-01 -1.7622857145067654e+00
      -7.5553442107950519e-01 4.3571238326967854e-02
      -1.7767621912092968e+00 -1.0152815504682571e+00
      5.6823762401237943e-01 -1.0345028133324945e-01
      5.4432002650211908e-01 8.9689427846655900e-01
      -1.1412489041106408e+00 1.0587177390590405e+00
      -1.1441950604418128e+01 2.7467866181910683e+00
      -4.4218075689902153e-01 4.0989399055352571e+00
      -1.3522399523939448e+00 -4.5786841621392922e+00
      -1.4169617173988289e+00 3.0581596053321505e+00
      -2.8401335422069968e-01 7.5138400153824247e-01
      1.4391192257900733e+00 1.2392539366357627e+00
      1.6535675682812467e+00 -1.9160764906403780e+00
      -7.6808907213727484e-01 -1.6917548041146997e+00
      -1.9779478835094799e+00 -1.5016353977374801e+00
      2.5075607608032686e+00 7.0947049853293864e-01
      6.5926991163279580e-01 -4.4370015338000179e+00
      1.2554052682466574e+00 -2.0573009126703514e+00
      -1.6531475544790091e+00 -4.6513204128607760e-01
      4.6158777922089406e-01 -2.3875634574857163e-01
      2.8691175007407415e+00 -3.0826694614133330e+00
      1.6333950907680637e+00 1.6741216042659346e+00
      4.0189745080213152e-01 -9.3183046113521117e-01
      -3.1840471014201635e+00 -4.3189235695277961e-01
      -7.0905227806622206e-01 -4.0451661840365736e+00
      2.4131987629699529e+00 -4.2464157914040412e-01
      -8.3317347390352670e-01 -4.6077056146258349e-01
      1.4118004490084597e+00 -1.2625678603625659e+00
      -1.7978190929789650e-01 2.2597236569414942e+00
      8.5470656119086885e-01 -8.9916538724197526e-02
      2.2918074386234086e+00 -1.4541488046512194e-01
      -1.8456215862540484e+00 1.3352845787273810e+00
      1.5863199801252672e+00 2.4887448025495713e+00
      2.9378756698267405e-01 -3.6335459452165086e-01
      -2.1355576912424448e-01 1.4017079135949859e-01
      1.1710772655974204e+00 -9.5571732881270066e-01
      -7.9621330412062585e-01 5.3451802852088737e-01
      -5.2160325520453765e-01 -3.7809111434224479e-01
      5.4357398762967257e-01 1.0661074544467926e+00
      1.0036711735728572e+00 7.0719129293685057e-01
      -8.8997027639390591e-01 -4.6967169861828773e-01
      -6.4964020352661034e-01 5.8919377951807617e-01
      2.0282662280317407e-01 8.0914400531789543e-01
      -5.0025375748578438e-01 -8.2388433631753022e-01
      4.9027093786774467e-01 7.1947613622000070e-02
      -5.5744211645880115e-02 5.5003577721263630e-01
      -1.0946019159035225e+00 -6.7905141342755415e-01
      -6.7055531939234148e-01 -8.6564150685898611e-01
      -9.6882031526004919e-01 -1.3518752446755836e-01
      1.2963786709515313e+00 -3.1187183336294649e-02
      1.2441054876794500e+00 -3.9145851526535158e-02
      -8.5311450312954817e-01 1.5768268940552280e-01
      1.9330840862548324e-01 2.0529107175051462e+00
      -1.0166941211710396e+00 -1.2330121900725790e-02
      -1.1601034213737420e+00 1.0587178248113731e+00
      1.9890401017371953e+00 -3.8945455705653909e-01
      -1.0021084596508949e+00 1.4543010641469349e+00
      1.7687020921866461e-01 3.6441081687065086e-01
      9.6540271624472518e-01 9.0804779125406432e-01
      4.8024230639013438e-01 1.4553941848367031e+00
      -4.6335809597681266e-01 -1.2017955092717878e+00
      -1.7278207168119361e-01 7.1500197204442251e-01
      1.1218420601727843e+00 1.0001559144963115e+00
      1.1251864898082088e-02 -5.5042509532894149e-02
      -8.4717342735580681e-01 -1.6729684798016342e-01
      -6.7131364545624173e-01 4.7211479078324226e-01
      2.2851152264212824e+00 -9.7424177439965842e-01
      3.1666811687452294e+00 -2.0419413888281714e+00
      -1.5991384164061626e+00 5.4668453014971350e+00
      1.6027732295298855e-01 2.4411343566087136e+00
      3.7856525229227289e+00 -8.3075321780141231e-01
      -4.6535240186741147e+00 1.1076035507255211e+00
      1.2461766497331983e+00 4.3615282349712512e+00
      1.8984840385413195e+00 7.0322763264309834e-02
      -1.3882058862088709e+00 -1.3850817249833918e+00
      2.3590985752914975e+00 -1.0992741508056543e+00
      -9.6861250125096854e-01 3.5967045912362341e+00
      -7.6457481517237136e-01 -2.9519274057631626e+00
      -2.4896502575791164e+00 9.5881580043241255e-01
      2.4368963505107462e+00 1.8204522512760464e+00
      6.6875102396517405e-01 6.6552623685109402e-01
      1.6590896502001222e+00 -3.7646163547006017e-01
      -7.4670762082475572e-01 3.6191212262829504e+00
      4.1453734864327080e-01 -6.0074330406803567e-01
      1.0999673405104016e-01 -3.7137113946296585e-01
      -3.2491741228251964e-01 6.1499795361168963e-01
      -1.3331816920067061e+01 -1.5425428261114587e+00
      -2.6111256807253826e+00 -5.3795886974953289e-01
      -6.1331967110092189e-01 9.4992609953934459e-01
      3.0816230923550059e+00 -8.4282261199127917e-01
      2.2998697123197845e-01 -2.0348182709647586e+00
      -3.9311889420869952e+00 -1.4217000959703716e+00
      -1.1642964245202329e-01 -3.4794984040335257e+00
      -6.9804762459140699e+00 6.7621124997625526e-01
      -2.2900630145625187e+00 9.4897355566868513e-01
      3.2186690924839625e+00 1.3945107102768015e+00
      -2.1369430988489646e+00 -1.9506370065018472e-01
      1.5937679626520058e+00 7.7539365282726092e-01
      2.8408412411003932e+00 3.0724946705621732e+00
      -1.5975893279609926e-01 1.8311393346165028e+00
      7.9211078723757211e-01 6.7334694415097329e-01
      -1.2239263327620686e+00 2.6603470282415511e+00
      8.8378481576505896e-01 4.1317323876483991e+00
      1.4400982426069244e+00 1.7987522002019216e+00
      -4.3574096614386812e+00 -1.5941651920630615e+00
      -1.5933270833922510e+00 1.3635811079838549e+00
      3.5493145780573112e+00 1.5634266012696044e-01
      -9.6201936439519464e-01 1.6687252854239770e-01
      5.4004513033428292e-01 -5.5862488333916183e-01
      -7.8817012027176048e-01 1.3763197139625336e+00
      -1.3269398322390258e+00 9.0269685556852941e-02
      6.3044710501622281e-01 -1.0638836130539313e+00
      -2.6591779928239978e-01 -1.2516390807799849e-01
      -6.7958451149259735e-01 -2.9826855668264174e-01
      6.0166960369497047e-01 -4.2253614450772331e-01
      1.5695218303985878e+00 9.6631335678800356e-01
      6.2031282550517919e-01 1.1610118163710572e+00
      4.1693119776802950e-01 1.2018886776176441e+00
      -2.9825547541838104e-01 -5.0970964009481123e-01
      -3.9606112567380913e-01 4.8621910679404579e-01
      1.2622686536532723e+00 -1.4579097805981059e-01
      -8.4920114059890461e-01 -4.9123264772195113e-01
      7.1488573471838701e-01 2.1960279122359667e+00
      -5.4923934608472569e-01 7.5431648775090576e-01
      -1.6319902274257367e+00 6.9487995949454304e-02
      -1.7876492043969000e-01 1.9486798392104707e-01
      4.9387044344615205e+00 -1.2243482948322040e+00
      3.4675064582974193e+00 -1.3247725854749848e+00
      9.4255210522688893e-01 1.3104747810275315e+00
      1.2671442302265192e+00 -9.5899256579153103e-02
      3.3821702172347695e-01 9.2141147579919724e-01
      -2.7498323300381706e+00 1.3976878586687752e-01
      5.9920745567005318e-01 2.8685558312888153e+00
      2.2126615987273408e+00 1.7268743988141335e+00
      -1.0264138522401665e+00 2.9947728488200736e+00
      9.9298704310446706e-01 1.0796924560874692e+00
      4.7417946264932836e-01 6.6889932804593266e-01
      1.1950608214797223e+00 1.0336194569892359e+00
      -1.3588314104008983e+00 -8.2759256737077824e-01
      -1.9534871765459185e+00 -1.4370151355704583e-01
      -4.5719624553640648e-01 9.5732898873264061e-01
      1.9567818216273289e-01 4.8761196813528229e-01
      -1.0075480353388317e+00 4.1151405715955142e-01
      8.0593778541258887e-01 -2.1788485595188720e+00
      -2.0096562631250730e+00 -5.7643763495186340e-01
      -6.9414053298093392e-01 -7.2472517473189801e-01
      -1.9101920720097194e+00 1.1246063574197605e-02
      -2.5062434377091658e-01 -4.6823772476092540e-01
      7.0077033910569031e-01 2.6892675096652063e-01
      1.2628882239418997e+00 -1.5669413067239735e+00
      1.1177400914629956e+00 2.4159939114741044e-01
      8.2966788364175204e-02 8.6719087959710084e-01
      1.9617123578780571e+00 1.2706951295420181e+00
      -1.0245615169064246e+00 -5.9161826692796704e-01
      4.8931692945177052e-01 9.7086186728119239e-01
      5.6010909642256090e-01 -6.2400253756147772e-01
      -3.2781181822757055e-01 -1.5676226556983568e+00
      -4.8706483975540016e-01 1.3017439087944243e+00
      2.0857672517082686e+00 1.6784704822786563e+00
      -1.7943459000147632e-01 6.4772516261118046e-02
      -1.6475676287828560e+00 -5.1242552170777000e-01
      -1.9050763256158709e+00 1.4524678835785938e+00
      9.6394207670405585e-01 -2.7608389963356128e-01
      -6.2789693778062206e-01 -8.4069505690282764e-01
      1.4946560707585460e-01 7.3468609486645831e-01
      8.2595403948439297e-02 5.1859453983754888e-01
      1.7161048810333579e+00 -4.9462051506483146e-01
      -2.5246634617838160e-02 -3.3273001170525557e-01
      9.2858488616349122e-01 1.5549991133340685e-01
      -1.4685619383350856e-01 -4.7771607472681338e-01
      7.9137715790875529e-01 5.3817549271357323e-01
      6.3349382653679054e-01 4.1309042978284682e-01
      1.8593206587920112e+00 5.4442585822072731e-01
      6.0050922097253823e-01 -1.6000880217272733e+00
      1.1628889927530679e+00 8.0532951301797318e-01
      2.5352558772152278e-01 -4.0881948520836309e-01
      -5.8070916738320222e-01 -2.2486657087250865e+00
      -8.1284277063926813e-01 3.3461949941651370e-01
      7.5769982993193075e-01 1.2736807527284970e+00
      -2.0188406566530862e-01 -6.6319815808418170e-02
      -1.2323612297775750e+00 4.6141072216601436e-01
      -1.8021674560068985e+00 8.9665572700133989e-01
      1.4463262236492747e+00 -1.0642429856565683e+00
      -5.3983031012130567e-01 -1.2578017611464318e+00
      2.5942408115122684e-01 3.7578010908625076e-01
      1.0241307855909958e+00 1.7704223850732913e-02
      3.7390042991973022e-01 -5.7233918177603782e-01
      2.0575161968964162e+00 -8.2473411225059412e-01
      1.0596691619929435e+00 2.0163524095168355e+00
      -1.4989693407466820e+00 2.8736751476842026e+00
      -7.1675746782326144e-01 7.9849061955328104e-01
      -2.3754197532564296e+00 2.1338671685005725e-01
      1.2532480344146710e+00 1.1837827409193946e+00
      2.1487197005353189e+00 5.5743377724265264e-01
      -1.5188326617689912e-01 9.6524207304153242e-01
      8.7922599244117061e-01 1.2668091727310045e+00
      8.7081565616683465e-01 -2.4504117206913512e-01
      6.0646411135782863e-01 -3.2848241657905947e-01
      -3.1287523231098344e+00 -1.0849593816911314e+00
      -1.5775263724048541e-01 8.0014915164019718e-01
      8.8805278636348506e-01 1.9697524797955019e+00
      -8.1754126992021525e-01 2.0796832069114751e-01
      -1.6368956408239588e+00 2.5714749038519296e+00
      1.1682434070126644e+00 -1.8692431116659107e+00
      -2.1121885127518656e+00 -7.3593289375306881e-01
      1.3497194133041104e+00 -5.4068087306026813e-01
      5.5982451610448489e+00 3.0026303486574296e-01
      -8.0725218098080531e-02 4.0094037710683933e-01
      1.2265702856853636e-01 -1.9725275529352739e-02
      -3.7879891751421413e-01 1.7342167159070949e+00
      -1.0596567774569372e+00 9.4416434468742838e-01
      3.2786930641627893e-01 1.2814335762394558e-01
      1.0780752496970142e-01 2.2084694695349194e+00
      1.6436816497990530e+00 2.0043198103161614e-01
      -5.5852394656452109e-01 -4.4431446213062592e-01
      2.2834124338700299e+00 4.7570065498119724e-01
      4.6744992120229351e-01 2.6387135310579257e+00
      7.1593104667100671e-01 1.1696547265856461e+00
      -1.0491619465885269e+00 -8.5944054068941544e-01
      1.0677933782026006e+00 1.5810591430751669e-01
      1.8112402039875821e+00 -8.9940552996013523e-01
      -1.0015689309914055e-01 -4.0158530283135407e-01
      -2.2108951515219324e-01 1.6241455720506774e+00
      -1.5815663655353627e+00 1.5124499719772302e-01
      -4.1605522864605582e-01 -1.1471408939936958e+00
      8.2268733098168085e-03 -4.1323416035619537e-01
      3.6142139805993101e+00 6.0305412437933059e-01
      -7.9780195749625038e-01 -4.7554813364113441e-01
      1.8014143240796215e-01 -1.8479713309592525e+00
      -1.5538192753279141e+00 4.9821988798207362e-01
      -1.0599657569543686e+00 -9.3448784877016786e-02
      1.4851501088731807e+00 -9.3978865425931490e-01
      -1.4869828340515119e+00 -1.0119390790710643e+00
      -8.8507390160951782e-01 -1.1628608668848954e+00
      7.1205483583506535e-01 -3.0717561068390919e-01
      7.1839166526731446e-01 1.4970943488717389e-01
      1.3119053603552325e-01 9.5674907774495765e-01
      2.6964466793333625e-01 1.3502798894683821e+00
      1.5676435586133830e-01 -1.5370393488093907e+00
      -1.5114499602718543e+00 6.4910708748861712e-01
      4.8674835515657111e-01 -2.6076450090143799e-01
      -7.4552241855609869e-01 -1.6001728978378655e+00
      1.9125396064100848e+00 1.6906515532504857e-01
      -1.2205005126777788e-01 5.4374870894282923e-01
      -1.6297085401530629e+00 8.7141819060000913e-01
      -2.0454193493649239e-01 3.4263652138244843e-01
      5.4107401029340254e+00 1.0698158758347007e+00
      1.1670381607753959e+00 -1.2981003344932642e+00
      -1.4616510503021318e+00 -4.7423361678128853e+00
      -2.5186342074437911e+00 -1.2324982068207289e+00
      5.5497030788028057e-01 8.9711377316681384e-01
      2.1074206940483546e+00 7.9703048955575795e-01
      -3.1895913744999418e+00 6.9567743545765698e-02
      1.4575364238437096e+00 -3.4805239582794685e+00
      -1.3250141557424215e+00 -2.1264214360727587e-01
      -8.4165434813967221e-01 -3.9891349240330243e+00
      -1.2150378381130513e+00 1.7011256864786946e+00
      4.5541521490594167e-01 -2.8184196292902280e-01
      6.3304897256459880e-01 -3.0082123828998593e+00
      -1.4327679522977359e+00 6.9251517290890918e-01
      1.7886174604593665e-02 -1.3269493354527384e+00
      1.4438028115224559e+00 -3.1498859874011478e+00
      4.4890586335527516e+00 -7.1066811235184879e+00
      5.2671241589710108e-02 -7.7800093302373208e-01
      8.8413156366805978e-01 5.8862832641866858e-01
      2.7376493856459844e-01 -3.4360927022343180e-01
      7.9473274684015562e+00 -5.2295221434906203e-01
      1.4256837813147603e+00 -1.4098051396497993e+00
      6.3584402120361239e-01 -2.3564640470675182e+00
      1.8883238132954400e-01 -1.0995081189025011e+00
      1.2386546316607780e+00 2.5563602933307339e-01
      1.0402318013927050e+00 -8.7782356571958553e-01
      -1.4038071108425199e+00 3.4007702234507459e-01
      1.6933036523254199e+00 -2.9028598731077189e+00
      1.1188795048418014e-01 2.2010115731242843e+00
      4.0226600687501897e-02 -1.9840548212444331e+00
      -9.9930525539069837e-01 -7.7836231777999210e-01
      9.9240118270770905e-01 -2.1190567048813369e+00
      -3.3996414554129266e-02 -4.9961475006237133e-01
      -2.5796493609484079e+00 -9.1962610839021922e-02
      -3.6037905237110202e-01 1.9470744469244372e+00
      -3.9878283147679933e-01 -1.0465331511335905e+00
      2.6800877542749340e+00 -4.8751007390846004e+00
      5.6779930616492424e-01 -2.0639597941652840e-01
      6.4887329359860779e-01 7.5061104220711761e-01
      -2.6505658305338536e-01 3.3276685740214124e-01
      -1.9976459975010310e+00 -7.1382675602352541e-01
      -1.2030571900425642e+00 -8.7181166018237766e-01
      2.3130991539633311e-03 -7.1193785310861213e-01
      -1.3719719803980819e+00 -4.4501213953523372e-01
      -3.7944559365930608e-01 -6.8504662869916177e-01
      -5.7283797008542588e-02 -1.3029343547977754e+00
      -7.1890850790854155e-01 -2.4425214460667748e+00
      -2.0220857123849920e+00 -1.5451024859119418e+00
      3.6555128133487652e-01 -3.4972877149753517e-01
      7.3254818251705511e-01 -3.3163678543124697e-01
      -9.9008879897540858e-01 -9.0990239470379897e-01
      5.2599342974269409e-02 -1.1399942102029686e-01
      4.2301707814490586e-01 5.9582066500262965e-01
      -1.2025903555326267e+00 4.1195131324757212e-01
      8.6651034808586913e-01 8.7990301317302577e-01
      -9.4800075022241215e-01 -2.7546884613265582e-01
      2.6335778804694816e+00 -7.2684962051454483e-01
      1.2885657574130651e+00 4.4451852374693041e-01
      -1.8141177604463452e+00 -1.3340079379073827e-01
      -1.5121284976683055e-01 8.0676185183261206e-01
      2.6644783407599548e+00 9.1464367248585765e-01
      -1.9062087174342848e+00 2.1359047227177566e-01
      1.5704043086086578e-01 1.6965574491313531e+00
      -1.1095601120445575e+00 4.2936451028267469e-01
      -1.8377982441790492e+00 4.0164817777528855e-01
      7.0083916739044280e-02 -6.2352780600666635e-01
      8.5782181082460240e-01 -2.9690587438143017e+00
      -1.6012883869280367e-01 -2.9770402327656438e-02
      2.6908293945653605e-01 -1.7611614485300113e+00
      1.9961585439463392e+00 7.7639023301364463e-02
      2.4045072068567111e-01 1.7183292655862699e+00
      -4.4810537851191518e-01 5.7314536030001217e-01
      -2.4524684624866251e+00 -2.9699817795292682e-01
      2.4548016040897189e+00 5.6529530193083610e-01
      3.2771527045562792e+00 -1.9490229501662823e-01
      -1.0973487767172747e+00 -3.5312235371726411e-02
      -8.3190722422459984e-01 1.4884548081156641e+00
      -2.5054914530644978e-01 2.9994106706410218e-02
      -5.7928492329540959e-01 -2.5109619728918968e+00
      -9.6884143668180100e-01 1.0473861714764887e+00
      -1.2976335868192479e+00 8.0369037735175064e-01
      -3.5585466392766403e+00 -2.9658052661158827e+00
      -4.5236974700765407e+00 -2.7623335031779002e-02
      2.2636967350241108e+00 -1.4366649487028893e+00
      1.3079307745214221e+00 6.5778966751089774e-01
      -3.5656337310952129e+00 -8.9803457127305797e-01
      -9.2070108976741194e-01 -3.7498472821088185e+00
      1.3406807103513860e+00 -4.3809532169495071e+00
      -1.6948842195928979e+00 7.7789699520452549e-01
      4.5226025446846196e-01 -3.3667382462568646e-01
      6.2860684998337941e+00 -6.9373011619726277e-01
      1.8603472081837236e+00 -1.0843478055603701e+00
      -2.4569164043727763e+00 2.0746918422458487e+00
      9.9242893930698878e-02 1.9818393444061331e+00
      1.1756458328805239e+00 -7.4134948882566970e-02
      2.0537894685832372e+00 2.1168981973576249e+00
      3.2793522870656100e-01 -2.0401670798503098e+00
      2.1157737432079951e+00 -1.8235601531808403e+00
      -6.2503358535108067e-01 -5.0638706653918772e+00
      1.3422365111270824e+00 -1.4738093709279487e-01</_>
    <_>
      -2.8858073319983433e-12 -8.1221216712149946e-01
      2.4009336733979461e-01 -2.7252926823062334e-01
      5.7439033824025032e-01 -1.7074483361105307e-02
      6.2070567369481089e-01 5.9180056723916682e-12
      1.2722697896447607e-01 -5.1899871780233635e+00
      -3.0412310304150796e+00 4.9532786170147007e+00
      -1.1169074515613571e-01 1.1075053721268553e+00
      -6.8378167492488447e-12 5.1899861066848612e+00
      -5.9861422289437849e-01 -1.2223437971238738e+00
      2.1794329586616432e+00 -6.8894487164275631e-01
      1.7933904446866289e+00 2.4909503411980408e-11
      -4.4562727376635634e+00 -2.4355966564240048e+00
      3.0645540153550099e+00 2.0155385409549229e+00
      3.7428788558525744e-01 1.5184865262727756e+00
      4.1473200190123075e-11 -4.4285803757425574e-01
      -1.6882666915598465e+00 4.2021609991876456e+00
      8.0606576489074466e-01 4.1764838523068262e+00
      3.9188662644654544e+00 2.5996146306709387e-11
      -7.5255186965013534e+00 4.0280694355056674e+00
      4.7800779426236790e+00 -3.5026140008240851e+00
      2.0229925158060813e+00 4.8104464104556506e+00
      -3.7609126190068546e-11 1.9949963002818634e+00
      -3.4747797761989245e+00 2.7819209989844453e+00
      -2.7375935703235932e+00 -4.3663875840946744e+00
      1.4892611910262150e+00 -5.5917017413959051e-12
      -2.3639532242611900e+00 3.4104360251665984e+00
      3.1591059011722527e+00 2.1125196531987287e+00
      1.5487516256290448e-01 -3.8578135284719950e-01
      -1.4902998229406879e-11 1.0498471817087343e+00
      2.9558545812417116e+00 2.3753915343719547e+00
      -3.0715709591580773e+00 -1.0419438629809823e+00
      -1.2989336055512263e-01 -5.3857303273345416e-11
      -1.2403356829799115e+00 -5.2175300885966092e-01
      -3.6514959764710024e+00 5.0704037404680236e-01
      -2.1538191513000724e+00 1.2438863538556748e+00
      -3.2759760551834757e-12 -7.1449193348402618e-01
      -1.9531317796288781e+00 -5.9630212098775868e+00
      1.5909221602146342e+00 3.2816853793370360e+00
      3.0768447116534543e+00 2.6261559569745731e-12
      1.6639195625454526e+00 1.5221725533267172e+00
      -4.0777620130177834e-02 3.6930648443431933e+00
      -7.4335215770635954e-01 -2.7367823724496199e-01
      -1.1224458653460311e-11 -3.9427865326355400e+00
      1.2413688148878963e+00 -8.6911354042084998e-01
      -2.6541385970522042e+00 4.2618117572709773e+00
      -2.5830997662874733e+00 -5.2179163588059563e-12
      5.9481841898949064e+00 1.3144966731299457e+00
      -5.9578373326315930e+00 3.5852423932945636e+00
      1.8126071822492826e+00 2.0818958071427542e+00
      4.1001765140951827e-11 -2.6212815916403698e-01
      2.0856885473467273e+00 -4.7771488552428307e+00
      4.2601335831927027e+00 -3.3422168760548723e+00
      3.2339292228099721e+00 -3.7487285945736844e-11
      4.4085448422359121e+00 -1.8457496112648419e+00
      4.5552027487593865e+00 2.9005291943335171e-01
      -1.7176652150043565e+00 -1.0409357019390020e+00
      5.0358826455984239e-11 -1.2598722937928859e+00
      -9.9746754177752706e-01 -1.5181381172931376e+00
      -2.0151373271653372e+00 3.9702051899808435e+00
      3.6098216222706330e+00 1.2603248090289617e-11
      1.3870579934043505e+00 -2.8251439865303185e+00
      3.1835188246814035e-02 -4.4216074112956143e+00
      -2.1582063206627633e+00 1.8320662776962269e+00
      2.3086763597363459e-11 3.5567496568358128e+00
      3.0656464745172318e+00 7.3867359259324816e-01
      2.1819962366636833e-01 -9.5635148462019215e-01
      -3.4428322747137239e+00 -4.9046205849193137e-11
      5.0864707067336901e-01 -5.1812467307684695e+00
      2.0923072943661487e+00 -1.7878274588329232e-01
      -1.2238859911318831e-01 -3.7214958160666405e+00
      -1.7771591202793818e-10 -6.5585122560472104e+00
      -4.1142050018511673e+00 -3.3877691513912627e+00
      -3.2766612354054079e+00 -2.0965465768439824e+00
      -4.3831379445855774e+00 1.1680010385052447e-11
      3.2066054469159573e+00 3.7762207193193231e+00
      -6.4031671434602542e+00 3.8901967145622318e-01
      -1.2893861229850676e-01 -1.2450629780114784e+00
      7.8773375437160359e-11 -1.4676659155997378e+00
      -2.4961780493179067e+00 2.1007021839055589e+00
      1.0958479357544764e+00 -1.7742636398257166e+00
      -5.4721924307168691e-02 2.0511525907615878e-12
      4.0820476096539746e+00 -5.6545504855829409e-01
      -3.4252446866327362e+00 9.8670176590690339e-01
      1.7208584938176557e+00 -2.6354353517888858e+00
      -2.2261045098334819e-11 -5.0972123523498736e-01
      2.0294077932864600e+00 6.8037052041928696e+00
      7.3462075720306552e-01 3.1008465167200101e+00
      1.9389013126469601e+00 -2.3512019509423058e-11
      -5.4108502488286980e+00 -2.7072117697243416e+00
      3.9330328833439965e+00 -1.3361157194179980e+00
      2.2336850166326445e+00 1.5969830198890109e+00
      5.4078572087619170e-11 -2.3032571852132864e+00
      6.6931493055504299e-01 1.7185647791272014e+00
      2.8881959562919408e+00 -4.0723439754434514e+00
      -3.4396493060188140e+00 -5.3424783646142001e-12
      1.6878736126604463e-01 2.7875644237229165e+00
      7.9308966952626825e-01 1.1299378692001472e+00
      -1.2137347530696219e+00 -4.6077238507043061e+00
      -7.3530570378316491e-11 -3.6962736782594532e+00
      -8.3885000742082905e-01 -1.4272124354007607e-02
      3.1546669297681533e+00 3.3838849348842065e-01
      4.5175575822092728e+00 -1.9164395879103533e-11
      -5.6379240769687025e+00 6.1395259017918880e-01
      5.7148522799318373e+00 -4.9339689565380734e-02
      -2.6562383291215136e-01 4.6554829624989186e-01
      1.7751097338070342e-11 -9.2217196526904466e-02
      4.6580482289037235e+00 -3.0307347179930599e+00
      -1.4562186065536014e+00 -1.1088117930116319e+00
      -1.8078176786282365e+00 8.6584675215218612e-12
      -4.0058582879608249e+00 -1.9080262374803697e-01
      3.3097638059206114e+00 -2.2408336210855477e+00
      -4.2141205474797566e-01 -2.2477786096000263e+00
      -6.1831889681256281e-12 -3.6121223772854454e+00
      2.5108037961433358e+00 -3.2030234662719161e+00
      -5.9813470944553560e+00 3.2935171521798674e+00
      1.7832619841810495e+00 1.7722043894115533e-11
      7.5831526613390272e+00 7.6058355520877574e-01
      -2.8097551691209177e+00 -7.3706144006982788e+00
      7.1214238703582362e+00 -5.5907355707597945e+00
      2.5982204328095968e-12 -2.1894925560805394e+00
      -2.7529434811438529e+00 3.2382629143187951e+00
      5.0906367079709203e-01 -5.7207652519655143e-02
      -2.0777701886595248e-01 3.0287714047411736e-11
      -8.9187710397924524e-01 3.8324807341965217e+00
      9.7557647338998921e-01 -4.3242775551440440e+00
      1.8943086454799356e+00 -2.3610913173321375e+00
      -2.1060961178410530e-11 6.9822663014659081e-01
      -1.5736279819184749e+00 -6.8011404831782585e+00
      3.4184634510393654e+00 -1.1349204354570313e+00
      2.6111562121809366e+00 2.3690575612915198e-11
      -1.9982177525879599e+00 1.1844248439301253e+00
      -1.2930279583679887e+00 -3.1175421183702281e+00
      5.3345762438818589e+00 5.0051486244835921e+00
      -2.8714698853428984e-12 -2.1344193297581393e+00
      5.6950612775619529e+00 2.7971762983779338e+00
      3.1844256694811444e+00 -5.5305933018054787e-01
      -1.4923719380011655e+00 2.1597874441244200e-12
      2.6744323471316069e+00 -2.5872676934594598e+00
      -7.8280434522830922e-01 -1.3685978803223520e-02
      -8.7138168809761885e-02 1.0457934759589920e+00
      1.8570321442832148e-10 -5.1124283314758419e+00
      -7.2012857897740021e+00 -6.7363674507944999e+00
      -7.6487683406046409e+00 -3.8151783725123227e+00
      -3.6506589899907351e+00</_></weights></facial_ann>
</opencv_storage>
