<?xml version="1.0"?>
<opencv_storage>
<facial_ann type_id="opencv-ml-ann-mlp">
  <layer_sizes type_id="opencv-matrix">
    <rows>1</rows>
    <cols>3</cols>
    <dt>i</dt>
    <data>
      36 35 7</data></layer_sizes>
  <activation_function>SIGMOID_SYM</activation_function>
  <f_param1>6.9999999999999996e-01</f_param1>
  <f_param2>1.</f_param2>
  <min_val>-9.4999999999999996e-01</min_val>
  <max_val>9.4999999999999996e-01</max_val>
  <min_val1>-9.7999999999999998e-01</min_val1>
  <max_val1>9.7999999999999998e-01</max_val1>
  <training_params>
    <train_method>BACKPROP</train_method>
    <dw_scale>1.0000000000000001e-01</dw_scale>
    <moment_scale>1.0000000000000001e-01</moment_scale>
    <term_criteria><epsilon>9.9999999747524271e-07</epsilon>
      <iterations>1000</iterations></term_criteria></training_params>
  <input_scale>
    5.9481840441506319e-02 -6.5322454191588450e+00
    6.0427254877359289e-02 -6.6199694277790559e+00
    1.3285843514160359e-01 -6.1642059572843690e+00
    1.3379885418217385e-01 -6.1855240182999109e+00
    1.0325678525241599e-01 -3.2401578468580277e+00
    6.5853079840428166e-02 -5.5617537313901479e+00
    9.8417512842536969e-02 -8.2536842223492251e+00
    1.0356062944353286e-01 -8.6573954967127786e+00
    1.1190689798392785e-01 -5.2472567361379392e+00
    1.0934315906636483e-01 -5.0884498394393978e+00
    1.5005378142055123e-01 -6.7315120672108746e+00
    1.4649476831343955e-01 -6.4859095327609984e+00
    2.3271689961040606e-01 -7.8444743530245979e+00
    2.3121531037300630e-01 -7.7296341321058764e+00
    1.1718495225425231e-01 -8.6656261281656715e+00
    1.1731171974665636e-01 -8.6753177037325848e+00
    3.0827908239942753e-01 -7.9542668346596175e+00
    5.8201872951894207e-01 -7.6541184971636191e+00
    2.7576279577669000e-01 -7.5148168589476052e+00
    4.9315141647341010e-01 -6.8140226936509753e+00
    2.5102319094832021e-01 -8.2563785692571194e+00
    2.8467509269735253e-01 -9.2528033824046307e+00
    3.0568291844308604e-01 -8.0201419221876531e+00
    6.0317180474755849e-01 -7.7975706098558542e+00
    2.7783957983513990e-01 -7.5498753581124847e+00
    5.1390164191667975e-01 -7.1644361043900844e+00
    1.6604243491938064e-01 -8.8251026592272535e+00
    1.3750424169112530e-01 -5.2476952897202267e+00
    1.4864457882173140e-01 -4.8340027323470345e+00
    9.4893321231719271e-02 -9.1242114677783892e+00
    1.4230364732521439e-01 -5.6033523081531564e+00
    1.4881195160667529e-01 -5.9236111306867896e+00
    1.0558697204158345e-01 -1.0148688953098617e+01
    1.5470601329077890e-01 -6.4489616594711237e+00
    1.3756132102373128e-01 -4.6772982496964755e+00
    2.1621024372462921e-01 -8.7392045864044849e+00</input_scale>
  <output_scale>
    5.2631578947368418e-01 4.9999999999999994e-01 5.2631578947368418e-01
    4.9999999999999994e-01 5.2631578947368418e-01 4.9999999999999994e-01
    5.2631578947368418e-01 4.9999999999999994e-01 5.2631578947368418e-01
    4.9999999999999994e-01 5.2631578947368418e-01 4.9999999999999994e-01
    5.2631578947368418e-01 4.9999999999999994e-01</output_scale>
  <inv_output_scale>
    1.8999999999999999e+00 -9.4999999999999996e-01
    1.8999999999999999e+00 -9.4999999999999996e-01
    1.8999999999999999e+00 -9.4999999999999996e-01
    1.8999999999999999e+00 -9.4999999999999996e-01
    1.8999999999999999e+00 -9.4999999999999996e-01
    1.8999999999999999e+00 -9.4999999999999996e-01
    1.8999999999999999e+00 -9.4999999999999996e-01</inv_output_scale>
  <weights>
    <_>
      -6.6163851102224163e+00 -7.0893306428085634e-01
      -1.4753383910619480e-01 -3.2317525764586302e-01
      -1.1867550232507251e+00 -2.9088491814693268e-01
      3.1711809354535569e-01 -1.1153917891243330e+00
      5.8026226870741521e-02 -4.4569345714202757e-01
      1.0409299585100213e+00 -1.4126852211781544e-02
      -3.8855321594179876e-01 3.7685275841507354e-01
      7.7774722280217334e-01 -5.4391791452090288e-01
      3.7378344208874384e-02 -8.6944648701848801e-02
      -1.1725087941510828e+00 -1.0649941524737827e+00
      -1.1995078897847373e+00 9.0420296089299246e-01
      -3.8237568080228226e-02 9.6730848512078083e-01
      -1.4018058909218545e+00 -3.9441716071515193e-01
      2.2005018209021441e+00 -9.4554470159310053e-02
      1.2087853698326512e-01 1.1257464082554549e+00
      -1.5979714341662556e+00 -3.5499274858877411e-02
      7.3647438751776484e-01 -1.2249211614805608e+00
      2.6319328588352958e-01 -6.1448718264211077e+00
      -6.0717410980427178e-01 6.9624997273660463e-02
      -4.2174353271497605e-01 -8.0007238965749772e-01
      -5.4463701092245209e-01 -2.7447743231902183e-01
      -1.0387702462962451e+00 1.7739378249381427e-01
      -3.1329736313287937e-01 9.9433028765859577e-01
      2.7380317850909199e-02 -9.6483549338188856e-01
      5.7927916542646052e-01 3.5383364439835790e-01
      -2.9525479168003399e-01 8.3991771797876397e-02
      -2.4298321122060440e-01 -8.1233251827170572e-01
      -8.8938452870488438e-01 -8.8661397235373174e-01
      5.8638255793970717e-01 -4.9575680974841824e-01
      1.2488968385701142e+00 -1.3434356541828572e+00
      -1.1584631357012325e+00 1.4248125001554384e+00
      -3.7652099980542975e-01 2.3405783586352435e-02
      2.9349461915694347e-01 -2.3336118117059441e+00
      6.2553380075813306e-02 9.5180541498230309e-01
      -1.5081698062378768e+00 -1.1855516937640538e-01
      -2.5549018849829608e+00 -1.1210316788888597e+00
      1.0480639124855322e+00 -5.8644784537632522e-01
      -1.8691979670197914e+00 1.2787082762077933e+00
      -1.1301176939288406e+00 -1.3882331564531840e+00
      -1.0700665865320977e+00 1.5132910944897846e+00
      -9.9965886297690473e-02 -4.6273260902031077e-01
      -3.0274357057230766e-01 2.0206037276053773e-01
      1.9873153840835522e+00 -1.7700627223254832e+00
      -3.9661130732334265e-01 -1.2976055546710215e+00
      -4.6486965761422233e-01 -2.9551793707479814e+00
      -2.1846938049657973e+00 8.9627081185347734e-02
      -2.4377410304594624e+00 1.2723908682894565e+00
      -2.2138008638081312e+00 4.6816226851942866e-01
      3.3540565894836698e+00 5.3588073824072746e-01
      3.3188064161585495e-01 8.1406197483196352e-01
      -1.4422039102145547e+00 -1.2925925753935319e-01
      6.2900035038441271e-01 -1.3958641559889158e+00
      1.8232087398682526e+00 -2.5174589006455279e+00
      -1.7148636432597772e+00 7.1951245411273534e-01
      -1.3225702859606516e+00 -1.8207291127407892e+00
      2.0432702722294427e+00 -9.9257768342412234e-01
      -1.7403651404569156e+00 -1.1312179742156836e+00
      1.3644295335672358e+00 -6.3778377198634273e-02
      -5.5944759832079116e-01 3.5549582573137889e-01
      -5.9573566708012393e-01 2.1234058042701922e+00
      -2.1275156932853792e+00 -4.9278568111611125e-02
      -8.2826477712770319e-01 -2.7013263775580504e-01
      -2.4705221602731657e+00 -1.4347494437847428e+00
      6.5931600564400311e-02 -1.9596151947379772e+00
      5.6499678936355024e-01 -2.6707253649078142e+00
      8.2231332242033939e-01 3.2126621985598809e+00
      5.9011532398644451e-01 3.3033070528564173e-01
      1.1485785350914017e+00 -8.9354590227134867e-01
      -3.0864457551636337e-01 -5.3719177955443079e-02
      -1.5771795333518952e+00 1.9800987736443643e+00
      -3.3255569384443135e+00 1.3940858215653911e+00
      5.9264220332952844e+00 1.6620605408353746e+00
      -4.5143923418159398e-01 3.7762865787415073e-01
      -1.3429102411060003e+00 -2.4527182512136128e-01
      -2.3996442897989962e+00 1.5089163895668505e+00
      2.2687645214472518e-01 5.5330562456886589e-01
      -5.1220855177392732e-01 9.4543445362975342e-01
      -1.6380857406970561e+00 -1.7366231632777493e-01
      1.3657721342905996e-01 7.3470117199626678e-02
      -2.7402320424891351e+00 -2.7755705501825179e+00
      1.1617907704517232e+00 -4.7551652123633747e-01
      -2.6678259437035354e+00 1.8214478742941993e+00
      -8.5036253731221734e-01 4.8683240837634217e-01
      -2.1550095224498036e+00 -2.1662150418478001e+00
      3.0774215841772945e-01 -7.4783206159400917e-01
      -3.4153561392807457e+00 2.3449238790785562e-01
      4.0552434913236635e+00 -4.2908839047137493e+00
      -1.1753242845789362e+00 -5.6892442550266429e+00
      9.5316926589225481e-01 -8.6221216092276631e-01
      2.2969774990339937e+00 2.6095456293966035e-01
      -1.1983249399861125e-01 1.3421054791815440e-01
      8.3794838380326098e-01 -1.5486746967558287e+00
      9.3116087222809718e-01 -4.1501594195257840e-01
      -1.5783828073027403e-01 2.6021043712212339e+00
      -6.4230978923743542e-01 -3.7581938633472300e-01
      4.9051416174752194e-01 1.1000619477757023e-01
      2.1498862398756793e+00 8.2702161527383156e-01
      6.6565306551560496e-02 1.7789862634792066e+00
      4.6818370577117241e-01 2.2088477153958161e-01
      -7.1188379014594183e-01 6.4575951502827827e-02
      -3.0229597131360986e-01 5.9195307392668461e-01
      8.3442201687671114e-01 -3.6294026726549738e-01
      -1.1670050533650012e-01 3.1567754429290402e+00
      -5.1814749269476201e-01 -1.2346678818143684e+00
      1.0299916463709193e+00 1.4475033317861190e+00
      -1.0569052551439155e+01 2.1769359000244018e-01
      -1.5872576001788576e+00 1.7043458639859967e+00
      -2.9753041668494917e-01 -1.0450251074094792e+00
      1.3748027346640186e+00 -3.8587834537665128e-01
      -1.8725859642177680e-02 -1.0916202985216945e+00
      1.3515831532763978e+00 1.9810915361496224e-02
      -5.0906970643359017e-01 4.5987042472800044e-01
      -8.8349259465383734e-01 7.2462126602650057e-01
      -1.7044857582466194e-01 8.7316800099665082e-01
      -1.0712979748713518e+00 5.9503150307236186e-01
      2.3466147997330630e-01 6.9574454194923285e-01
      2.0885269308243481e+00 -5.1411239478125301e-02
      -3.3503554969001342e-01 -1.2727636923297525e+00
      7.0444305380233396e-01 3.2748587186315548e-01
      -3.3649701731916892e-02 1.9980411136558025e+00
      -1.1097660851404625e+00 -3.5079057429605476e-01
      -4.0297850972137167e-01 9.5622123610536724e-01
      4.1447455129289434e-02 -9.3787879792192808e+00
      -3.0449495537787186e-01 -1.5526194428636586e+00
      1.7753026682704869e+00 1.2297949039373876e-01
      -5.9043694061237373e-01 2.8174918226726853e-01
      -6.0611527225338567e-03 -8.7909188499726468e-02
      -1.4938885369718151e+00 7.4414959107929923e-01
      -8.2424386001362149e-02 -1.0187189556855494e+00
      8.5646150073992067e-01 -1.2362324184984461e+00
      4.7005169806435515e-01 8.1305667179912744e-01
      1.9342913367835677e+00 -8.1159119695337179e-01
      1.3150717037341073e+00 7.1297234951684096e-01
      3.4006357909641088e-01 1.8295276739570903e+00
      2.9410571155124656e-02 -6.7164839194841985e-01
      -2.0850735725155269e+00 3.3566393569058850e-01
      -6.0473701586340001e-01 1.6460760256657470e-01
      -2.5426512796140940e-02 -1.5821188133838167e+00
      1.4285723418264777e-02 -4.1867543230840654e-01
      -2.6723154243329461e-01 -9.4227537976386100e-01
      -6.8052842069403727e+00 1.7341915529770007e+00
      7.7588434624898861e-01 4.3635367890964751e+00
      1.0383162363641361e+00 -6.0061270666839983e-01
      5.6351525365902377e-01 1.4096928204562782e+00
      -2.2862426430098166e+00 8.2546975883994511e-01
      -2.3835506282743343e-01 -6.7355139118791735e-02
      2.3397363563921161e+00 -1.7201970376543718e-01
      -1.4574023861889340e+00 6.9494660830762256e-01
      1.8091013049336288e-01 2.6211613034066086e+00
      -6.3321288627473638e-01 -3.0707876332455869e-01
      2.5845709209919137e+00 1.9410382593815240e-01
      7.3104734090651546e-01 -4.2819019779227929e-01
      9.7189020572016505e-02 -2.0520983425685987e-01
      -1.5623644025358852e+00 -1.6029844749595468e-01
      7.9348935452976832e-02 3.9960471642093898e-01
      1.9414953850491992e+00 -4.8378138009352539e-01
      9.0967482373531028e-02 -1.0067754944328942e-01
      2.8291717326238314e-01 -6.5324493609106717e+00
      9.4388440481561098e-01 4.8115087080352653e-01
      2.9022780964006962e+00 1.1225519575149456e+00
      -2.1923893770978978e-01 -9.4646514072274257e-01
      1.0236247939643432e+00 -2.0120113420557169e+00
      6.8460158336530086e-01 -4.3806205037504248e-01
      -4.7869184215257730e-02 1.9290201248625407e+00
      -6.7614524922732799e-01 -1.8421669218440504e+00
      3.4633705044205743e-01 5.7253194826214504e-01
      2.2354051377583759e+00 -1.4160266848129935e-01
      3.2786440973508263e-01 3.2601735936242036e+00
      -1.9520436575017142e-01 8.7175050061982606e-01
      -1.1813431475388754e+00 2.9392523078789545e-01
      -7.0175608025725855e-01 -2.1560337789600452e+00
      -2.2337399331442090e-01 1.2158712024483111e-01
      -7.4540558451710504e-01 1.8447472866850034e+00
      -7.2406077249848855e-01 -8.6381012613855135e-01
      -5.9805500738629902e-01 -1.7151167874300427e-01
      -4.9244383672275189e+00 2.0217319047557916e+00
      1.0109178988009868e+00 2.8300553500359555e+00
      -7.0412868091511080e-03 -1.2856403813680120e+00
      -1.4461978524338620e-01 8.5373900040389750e-01
      -2.4272839851206065e+00 2.1348409254802325e+00
      -6.6479525190338240e-01 -1.6020083175644290e-01
      1.1824627694951808e+00 9.8691714959702226e-01
      -1.0583714538244311e-01 9.7060770067377983e-02
      4.5995180280792844e-02 2.1629804227368457e+00
      -1.4837465551763937e-01 -1.6789282405277683e+00
      -1.0287486402179910e-01 4.2117940044308150e-01
      -2.1680478077304377e+00 1.6010477855512795e+00
      7.9478135116264712e-02 5.4726066175874478e-02
      1.7166648516433032e+00 1.7653263218554344e-01
      -9.8131045155044089e-02 4.4838365620211054e-02
      1.6005525569529691e+00 4.0396841119598653e-02
      1.3526357463762479e+00 1.4341651430483837e-01
      8.7582141062345065e-01 -5.2552841000948289e+00
      5.1443866867178145e-01 -3.2934155901878343e-02
      8.3570496414777762e-01 1.4733769682429740e-01
      -3.0866857013870086e-01 -8.9055174997982478e-01
      -1.6936969167579075e-01 -2.0551208376808110e+00
      1.8577071515940287e+00 -3.9897070445639060e-01
      -6.4336630215042723e-01 2.0804359646788009e+00
      -1.0295514243818971e+00 -6.8768652651548690e-01
      -2.3798859160020830e-01 5.8341438776503851e-01
      1.8105118409221339e+00 6.6417564775980831e-01
      -2.9286490050259140e-01 1.9441393278632637e+00
      3.2137208063790224e-01 -6.1920980368747103e-01
      -1.0437682717506978e+00 -6.6756262022114610e-01
      -5.5175357912873568e-01 1.2459667878692149e+00
      2.9800248683787051e-01 1.4057025063491690e-01
      -3.5130145651020345e-01 2.6630134962401155e+00
      -8.1984067737838595e-01 -9.0763437437897654e-01
      -1.2056183658437203e+00 1.0449780443621168e+00
      -6.0074300092417197e+00 -2.3360586205891543e+00
      -1.9251774955635876e+00 -1.1263129548261923e+00
      -5.3105746750238414e-01 1.1595659472970308e+00
      -9.4119543419587581e-01 2.9505770580213292e-01
      5.9303475656519711e-01 -4.0229267441023803e-01
      1.2232834796836022e-01 -2.1943996844773583e-01
      1.7158255486331371e+00 -6.3944095706329362e-01
      2.7537791261669908e+00 -2.6076483935707135e+00
      -3.2000930952330797e-01 1.4175498589533200e+00
      5.1510193607429189e-01 -3.5504757970044332e-01
      -3.8533638000760415e-02 1.1769374367535685e+00
      2.1834933458021846e+00 2.6399432245533816e-01
      -1.3857358634119104e+00 9.7379580132474941e-01
      -1.1631373029088752e+00 1.4747863362995298e-01
      3.1464575682432516e-01 5.7396670823773099e-01
      1.8309453097484110e+00 2.4860753082503595e-01
      -1.6905614842080106e+00 7.3644570908600848e-01
      6.5851236596360962e-01 -6.1472437316353874e+00
      -2.6403012942018953e+00 -2.5137580157613448e+00
      -2.1428657264031252e+00 -3.0815802872582565e-01
      5.3224542049697510e-01 -1.7032472923771558e+00
      -5.8701215410917240e-01 1.4136228139264371e+00
      6.2196344019162589e-03 9.1686249988040647e-01
      -5.4433693603158984e-01 1.4808645604758475e+00
      -1.7409309187301976e+00 1.4620964963238803e+00
      -1.6748512771410251e+00 -8.9098703914875099e-01
      -2.7997079715700351e-01 1.3491988744967309e+00
      6.8825298975464988e-01 1.4585410040710067e+00
      6.8970379110599844e-01 2.3959299018390245e+00
      -1.1134592524009710e+00 -1.4376932451487552e+00
      -7.0694790424803400e-01 -2.9512458628187788e+00
      5.3920097824957913e-01 3.7340110764805790e-01
      5.7488236521320879e-01 1.9102164094278993e+00
      -4.0748241958068621e-01 -2.7299952039955331e+00
      9.0046364532085588e-01 7.8678028076564044e-01
      -6.8031611915561214e+00 -2.1484252317273236e+00
      -2.3908708984064915e+00 9.5183411320815059e-01
      -2.4448414570064152e+00 -2.3160855671405658e+00
      7.4206776564228372e-01 1.6023491546496049e-01
      -1.7027199456760739e-01 -1.7489636838259701e+00
      6.9381633188511338e-01 -1.6853379834667276e-01
      6.0058301211973156e-02 2.3947297319818167e-01
      1.3792364981942953e+00 -1.0505868219382423e-01
      -4.6314854539682149e-01 3.7643319627506894e-01
      -9.2986818815920258e-01 -1.4308839482305560e+00
      -5.0477782079328160e-01 -1.6506916713055492e-01
      1.4596324530954324e-01 -7.1407661956676316e-01
      -2.3985026531797946e-01 -4.4020845416490939e-01
      1.8848487281815083e+00 1.4951115816436075e-01
      -1.2739330588181096e-02 1.9837582980669698e-02
      8.9729760496480493e-01 2.5658323286268364e-01
      -8.1818292902271672e-01 1.0037917735760951e+00
      -1.0337902562945827e+00 -6.9907147611546403e+00
      -2.1093874790836602e+00 -2.3017261788095582e+00
      7.6046820676016269e-01 -2.3309049936583182e+00
      -2.3853814971561542e+00 6.9780382192574952e-01
      1.4076919461935702e-01 -1.6441945536044117e-01
      -1.7823158206433705e+00 8.4812784858431378e-01
      -1.5162104339600774e-01 1.0707411497287805e-01
      1.0435215408813167e-01 1.2827282829052686e+00
      -3.5453508040468505e-02 -5.5420873775908408e-01
      3.2405633519996180e-01 -7.8608162455501562e-01
      -1.5441887974161164e+00 -3.2393279643832551e-01
      -2.7117166023917183e-01 -1.8818260894624888e-02
      -6.0813385399464626e-01 -1.3506852792232490e-01
      -4.3819921566825898e-01 1.7360071782157567e+00
      1.6706235775364930e-01 3.1519762763676205e-02
      1.2591669950467149e-01 5.4433543920556138e-01
      1.7105295095553003e-01 -7.8846716162704589e-01
      1.0845572586797869e+00 -1.0108049548544882e+00
      -8.2736437369272178e+00 -8.5378838059806450e-02
      -6.0877751940721758e-01 -1.3347504006282960e+00
      -5.3724663618221835e-01 -1.2245597285157315e+00
      -5.7401210470702058e-01 -3.3047013884384596e-01
      3.4974021303803404e-01 5.5557451274766445e-01
      -1.6133257203042098e-01 1.8055842184926718e-04
      1.4244103710104944e-01 -2.2560748091271546e-01
      -5.2320438423475324e-01 1.4734251884155519e-01
      -7.9381689781448050e-01 -7.3064187410551618e-01
      -6.5753545214199294e-01 1.2385955312962936e-01
      -1.2577287893454112e+00 5.3945500578644656e-01
      7.8265981443949184e-01 -1.9278001836766612e+00
      7.3240312767040752e-02 1.3610818215627678e+00
      2.2609704617731344e-01 2.9796890221551581e-01
      1.3268246859591434e-01 -7.1322632742477676e-01
      7.4964755063738064e-01 6.8105829708492729e-02
      -1.2703488121126880e-01 5.7722608775724793e-01
      -3.9888148608882665e-02 -9.1825782528762776e+00
      1.1805556701427686e-01 -2.7462457930679446e-01
      -9.7650058670603856e-01 -4.2103899345982576e-01
      -6.0352682246347689e-01 -1.7103415955838408e-01
      -5.7550647482224693e-01 -9.6907027838202368e-03
      6.4195371348137720e-01 -9.4391694054530753e-02
      -3.0983917522063431e-01 1.3307035540447762e-01
      -7.1329822400219689e-01 -6.7831668359264730e-01
      3.2658941231921790e-01 -8.8127223928906906e-01
      -3.8789633869595508e-01 -6.7611935922709376e-01
      -2.6489602309231575e-01 -1.1170304605618377e+00
      3.0271484449340025e-01 9.9968291228920769e-01
      -2.1500398869509447e+00 -2.0681417745719063e-02
      9.5768611454515684e-01 1.9564554934708286e-01
      1.9146876498317031e-01 4.8329738007784456e-01
      -3.2712985528227556e-01 -3.0323161341320373e-02
      -3.0052063638661713e-01 -2.2145525794024906e-01
      -2.6735238759136459e-01 -1.1195823017440386e-01
      -8.7425147854359935e+00 -1.0448979549210620e-01
      -5.6985352681453438e-01 1.2138405859702447e-01
      -3.8877783367108248e-01 6.1922248800451239e-02
      -2.2080039040182511e-01 -2.6727523373460704e-01
      -4.0149373874426891e-01 5.2477143730697906e-01
      9.7138226220271490e-02 2.7215825874980504e-01
      1.9445544702652151e-01 -6.2103665350889414e-01
      -2.8952884746654489e-01 8.4616029828228712e-01
      -3.5672246556662418e-01 1.7404373351176530e-01
      -8.2198980895550167e-01 -6.7721119533852692e-01
      -1.1003394147352432e+00 5.5204716703913692e-01
      4.3806364957588323e-01 -1.9508270254323987e+00
      -2.2634873252741827e-01 5.7409397460566036e-01
      1.1975377025996112e+00 4.9660561952888899e-01
      -5.8514970699119220e-02 -5.7962523854149495e-01
      6.7712496301760031e-02 6.9204346726374821e-02
      -8.1904890698179661e-02 2.1738397908311186e-01
      2.0784661763740311e-01 -8.6670323587778206e+00
      -9.0174514967447861e-01 -8.5526291448141889e-02
      -4.4837032981865360e-01 -3.6462857359507062e-01
      -3.6345468244794649e-01 -1.0553910278899767e+00
      -5.0721104562498609e-01 -2.1983556232097601e-01
      1.7578083126939879e+00 -3.0853938872206560e-01
      -1.4743638554487826e-01 7.4586908452674683e-01
      -1.2149269900997499e+00 2.0164381046539826e-02
      -1.8560699214674267e-01 -5.1242847820717974e-01
      6.4856455405448088e-01 -2.8073695486912903e-01
      -1.7669018694315277e-02 7.4572487523055653e-01
      6.5875582343463823e-01 1.3584009629846847e-01
      -1.9780620037144216e+00 3.6561277191168973e-01
      -5.9292397266144170e-01 -1.3268370162326140e-01
      8.2444565431536415e-02 4.2563828809369500e-02
      -1.5869217339399493e+00 8.0848021360675282e-01
      -6.9885090495380187e-01 -6.3569176131225869e-01
      3.9086211942523508e-01 -1.9188951405680116e-01
      -7.5611029112382999e+00 2.1031379576989933e+00
      6.7625944896328960e-01 -3.1438702246712942e+00
      5.3658824593243559e-01 -3.2920730733685537e+00
      -5.8997904413912750e-01 -6.8454980255463949e-01
      2.8952713483494104e+00 -4.0485214124913488e-01
      1.9056417186250039e+00 -2.2161549334565692e-01
      -3.0385649034411055e+00 2.5345329119036086e+00
      -1.9129913018489646e+00 -5.0477831192977396e-01
      -1.2766299864098565e+00 -2.5521084672683019e+00
      -1.9334668386461920e-01 2.1244844825881946e+00
      -6.6640445386065128e-01 8.7972506152052243e-01
      -1.0650647824006941e-01 4.9742684462384701e-01
      3.7682422010021849e-01 -8.2511472296999608e-02
      -2.3743461917399973e+00 1.6021033404109530e-01
      2.1239828272891761e-01 2.3478081919184302e+00
      -2.3981747229601336e+00 3.3543812997341173e-03
      4.2589328974925345e-01 3.2316670332820627e+00
      1.3104444215087205e+00 -4.5469811631547286e+00
      -5.0495599768512234e-01 -5.4237255214469393e-01
      -3.0056939697103506e+00 1.3909192420103058e+00
      -1.3007197519423987e+00 -1.2869739965022815e+00
      -7.3699951014150455e-01 2.5015762870903098e+00
      -7.4441564505599689e-01 7.1930861074448715e-01
      -7.5655629198120056e-01 -8.9280089430399279e-01
      1.9562033784937221e+00 -1.5283832007235758e+00
      -2.7054952182556598e+00 7.1868660060115197e-01
      8.9081971491552669e-01 1.3601423715163701e+00
      2.9058409104839034e+00 1.8976698000626382e+00
      7.4151417407608583e-02 4.5723961889732945e-01
      -8.6788569719596242e-01 -1.3297871908390018e+00
      -4.4974114019407163e-01 -3.1336966826349877e+00
      -1.0908888710611337e+00 5.0110951484710597e-01
      9.0949771262850554e-01 -1.7588490037081423e+00
      5.0625142310553775e-02 -9.4594190770166753e-01
      5.9344536384548308e-01 -6.3700906514356115e-01
      -7.8801814250577156e+00 -3.9764513566219312e-01
      -2.5658808249425347e-01 -1.0938976561866518e+00
      -4.7055439878716221e-01 2.4008183206185793e-01
      -6.9642846783472656e-01 -2.2361280910826264e-01
      -1.2591553742201636e-03 3.4744689975990400e-01
      -6.3772302823149662e-02 2.6326872178678523e-01
      -1.7382795785783542e-01 -6.7285590004342244e-01
      -3.1323106216107649e-01 8.1357910117544685e-01
      -3.7631440159526924e-01 -4.5433558955840192e-01
      -6.2639679247112356e-01 -4.4201213893517205e-01
      -8.9920715814204943e-01 4.2564973394255073e-01
      1.0126473074400236e-01 -1.2275870056827274e+00
      -5.8001107377560845e-01 5.9302474264779470e-01
      1.5110155327054231e-01 2.2914539577434942e-01
      1.1313958339811041e-03 -8.4194411678152026e-01
      -1.6291235111915883e-01 4.2469553777821009e-02
      -1.7223662122959052e-01 3.9749178040661903e-01
      1.5966056920170136e-03 -7.5310091291580683e+00
      -6.3223433042331689e-01 4.3867473858869777e-01
      -1.6766103396691485e+00 -1.6600007058904170e-01
      -7.3112827349808884e-01 -8.6918393690634921e-01
      -2.9612675117683346e-01 3.6164850781292113e-01
      1.3626409141964151e+00 -5.0127020887085705e-01
      -3.0422145816160961e-01 3.2442103689220031e-01
      -1.1302510944960524e+00 -1.2185596404508336e-01
      -3.7418280017174738e-01 -1.1062385504174843e+00
      -1.4399740547929132e-01 -7.8389528617350823e-02
      3.4661300129223005e-01 5.7565023131638249e-01
      5.5473755274025549e-01 2.2633846894882170e-01
      -2.2468509465557562e-01 1.5508557850712382e-01
      5.0543487917457164e-01 -1.9845115104573832e+00
      -1.5803082300844626e-01 1.7157636786361252e-01
      -1.3008268253315936e+00 5.5127034110176243e-01
      -8.3634478546862745e-01 -3.7720653009981769e-01
      8.3625942679672505e-01 -3.2911508088036839e-01
      -7.8463534019403047e+00 -9.4043966625221587e-01
      2.2963609715743930e-01 -5.9352969517848853e-01
      -3.0886989736357595e-01 -4.0348904909497767e-02
      -6.7795657629682693e-01 1.7080068383836469e-01
      -3.1076621204419658e-01 1.0943463422472475e+00
      -2.6688302391487240e-01 2.5878209069972158e-01
      3.6946557119436840e-01 -1.0658497394224113e+00
      -2.4573335829187287e-01 3.7053525204594023e-01
      -3.4445056776531735e-01 3.0671228857454746e-01
      -5.4256107477292570e-01 -4.2566856537572639e-01
      -1.3735015306678476e-02 8.1338942009903192e-01
      -3.6978891731971414e-01 -4.5086591880586874e-01
      -9.7758017601368180e-02 -1.4093250457866663e-02
      -2.0318287003220137e-01 9.6036584900655142e-02
      -1.3785051873841422e-01 -1.4219781107646401e+00
      1.9842780575706560e-02 -3.2773272182738378e-01
      -4.5796927380390214e-02 5.8540762729492679e-01
      -8.4955922040313048e-02 -8.6459277199777453e+00
      -6.3305808019125298e-01 -2.1580458265332453e-01
      1.0078117839621983e-01 5.9826715460757199e-02
      1.3449673366682926e+00 -7.4771186658264610e-01
      -4.4078825096280350e-01 -7.3983525560398633e-01
      9.8936943943882505e-01 2.3799607717209889e-01
      3.1835631101842171e-01 1.5603153311208889e-01
      -1.3708547664529995e+00 -3.0347223366055476e-01
      7.7369543590562950e-01 1.6786532425878634e-01
      7.6445476624438891e-01 -4.3073416586488783e-01
      -5.4437545709323643e-01 4.2601752323665604e-01
      4.6024068324026074e-01 -2.3907438090166197e-01
      -1.6978053194267178e+00 -4.6200179510877898e-01
      -1.0699036005903959e+00 1.4827896353142109e-01
      3.3240518019679766e-01 -2.6064385668211260e-01
      -1.3267970260944451e+00 -6.3818128068071667e-01
      -4.5876414277454597e-01 -6.5550101321498533e-01
      -1.1114066556872035e-01 1.3762624548973751e-01
      -7.4800843842000146e+00 1.2256480847683351e+00
      6.6361645730936725e-01 1.7081438642226900e+00
      9.0589010979715348e-02 -9.1201913275886071e-01
      1.7289420394448423e+00 -4.6528247292178762e-02
      -7.0981199638808801e-01 6.8516624683111260e-01
      -7.6251076220268865e-01 2.2374322964242890e-01
      1.3814547280773752e+00 -7.7597621887484125e-01
      1.2106207954172523e+00 -5.0774339567665661e-01
      -4.3263032782840366e-01 1.4873489287097075e+00
      -2.6088880327387853e-01 1.1889423140889996e+00
      -5.3505565739544536e-01 2.1660138974406642e-01
      9.2342461393354636e-01 5.2800079362050001e-01
      4.1541326465190254e-01 5.7311442643058774e-01
      -5.9550001375668793e-01 8.1981184213103764e-01
      -5.2875651554159589e-02 2.1656068549728680e-01
      9.2727654565619511e-01 -4.8510213312679584e-01
      4.2945116210403328e-01 -7.6116793606104494e-01
      1.2072970897469262e+00 -1.2191648033577471e+00
      -3.7876185045343030e-01 5.6698434022329096e-02
      1.2894186187518961e+00 -6.3811802114886385e-01
      8.1742944349606605e-02 2.1972603211027781e+00
      1.0045215691718048e+00 -1.5075001439091738e+00
      3.6030464238388044e-01 1.2302264478251222e-01
      -1.1979232316824083e-01 7.3032202182056616e-01
      -1.0578726495370772e+00 1.9509275494147227e+00
      -1.1925872263925807e+00 -9.2662825010796745e-01
      5.7997552912082317e-01 6.4386894752736701e-01
      -3.2067044939732747e-01 -3.7886175312111309e-01
      -2.1839264356427397e+00 -6.2233454020864110e-01
      1.7217682294567671e-01 1.0966452455278470e+00
      -2.1060671597489669e-01 7.4709501843593462e-01
      1.2202596083221209e-01 -2.5571946379987254e-01
      -4.7545308681305842e-01 1.1775727302715844e+00
      -1.9634127982818658e-01 -1.3052026507659790e-02
      3.7551606401352333e-01 -6.1867577463931990e-02
      -2.1891495807606649e+00 -1.1002626042729635e+00
      4.9328266838485368e-01 2.4947792651796425e+00
      -5.8732139930543448e-01 1.4072424629677338e-01
      3.3927438259282168e+00 2.1082151070225366e+00
      -1.4515478107640780e+00 -9.6970839876187653e-01
      1.9501250986022369e+00 2.7686227808799879e-01
      -2.7960178178714146e-01 3.8286537213587041e-01
      2.9260359850015233e-01 2.6251002825392555e-01
      -8.4883157987526880e-02 -1.7098303877820422e+00
      -7.0916359399080386e-01 -1.7232619808888601e+00
      -2.4386256570894953e+00 -4.6172299351420298e-01
      -6.7176148148837067e-01 1.6245034758681638e+00
      8.9557213350146536e-01 -3.6188181541648112e+00
      3.4930319914064505e+00 3.5105845337212949e-01
      -1.3309537842880675e-01 4.0285803020967326e-01
      -1.4403200603833253e+00 1.3767438918610680e-01
      3.3334857677423180e-01 1.1306612273977581e+00
      7.5997178951242661e-01 -9.2635865312420229e+00
      2.1533048143704021e+00 6.8514722842122189e-01
      -3.8563830223579899e-04 9.2162720618055949e-01
      -2.3567156842570802e+00 3.7809888582540935e-01
      3.0116068435841706e-02 6.7003615798333693e-01
      5.5656538403435940e-01 2.2142819207235198e-01
      6.5330070665604401e-01 -4.9379527453663996e-01
      4.2241164127992631e-01 -1.1737298768547468e+00
      -6.6305025409434182e-01 9.1464754055344766e-02
      4.9365171026760518e-01 -9.2955449016993619e-01
      2.2866300952981757e+00 -8.7979593088645558e-01
      9.2868567918154410e-01 1.1544065869953446e+00
      3.3811837373313758e-01 6.6621445612056895e-01
      5.8100762723726618e-01 -1.9864356645728853e+00
      3.0496206560040862e-01 8.9938589372070388e-02
      6.1040173635465245e-01 -9.3000366631076525e-01
      3.6200717924964876e-02 8.1733006483099235e-01
      -5.0418661731042869e-01 8.6784759164972147e-01
      -4.4200753680525366e+00 1.8171042073800816e+00
      -6.3263022080260956e-01 1.1632467007341608e-01
      9.8473595257012103e-01 -3.3908441113400023e-01
      6.0666416607018203e-01 1.2369298766206437e-01
      -4.4107513375939789e-01 1.6827536760096971e+00
      8.5607959223224628e-01 -8.5167373115022649e-02
      -3.6119533201863202e-01 -5.2385795076508324e-01
      1.0318093891485387e+00 -2.1963250464788882e+00
      -6.2702006577919758e-02 1.9610612524067779e+00
      1.3018022082481124e+00 6.4361017051114772e-02
      1.0186028324983041e+00 -2.2532242935550078e+00
      -9.7040214847868234e-01 3.8741491862219662e-01
      1.3265557248562867e+00 -7.5697284170535095e-01
      4.0701412871679460e-01 -4.2120453825279447e-01
      -8.6870764851663984e-01 1.4046821593528694e-01
      2.8076250367631461e-01 -4.2776156300252621e-01
      1.1603570093222891e-01 7.9575938841115779e-01
      -1.1744450221750025e+00 -4.2534979542668827e+00
      1.3014509237324730e+00 8.5716235629718662e-01
      6.2989464760153069e-01 1.2664377863495087e+00
      1.5813852939512281e+00 1.5091875651554318e+00
      8.8499066428818529e-01 -1.1643773011544649e+00
      1.0547281987309294e+00 3.8154037563178228e-01
      -1.0612430536428977e-01 2.9466607697618596e-01
      -3.9535587151737583e-01 1.7360328432494341e+00
      -1.4775417247875937e+00 1.3618953919231733e+00
      2.1580214703119323e+00 3.9913460458837247e-01
      -1.2926947517853478e+00 1.9114353344166355e+00
      -4.7629987976794491e-01 -2.0200162030634448e+00
      2.4140187436610336e+00 9.5983599655616272e-02
      -3.0286008606606303e+00 1.8253114479884300e+00
      -6.5416834707385507e-01 -4.3525935751686912e-01
      -7.5150188985060529e-01 -1.2607437244946731e+00
      -8.0424248556428979e-01 5.4320106453067230e-01
      -8.3414810644121851e-01 -2.7928038169128772e-01
      -9.0718884231168122e+00 6.1004271787702520e-02
      1.4744940324475653e+00 -6.9478955177313606e-01
      1.0437542628449183e+00 -2.4310096336245804e-01
      -7.2461451636324004e-01 2.0406410585548357e-01
      4.3241149906883553e-01 -1.9819851764447968e-01
      -7.6456117328650253e-01 7.3734857306834212e-01
      5.7150072006959006e-02 1.5562644949028109e-01
      -8.0201895225237685e-01 -1.6874041492504581e+00
      1.6704851140865753e+00 1.7403430498665382e+00
      -8.3954883968371929e-01 1.9542638291315737e+00
      1.8102771120862463e-01 1.3179996758016799e+00
      7.8809862722577151e-01 1.3072097106228802e+00
      1.7603667085088570e-01 -6.2620724013057974e-02
      -1.9835084593363130e+00 -1.3281928228298684e-01
      7.3301264582499817e-02 -1.1544781601088934e+00
      -1.6625697503484287e+00 -1.5582538472504273e-01
      1.2111545774134633e-01 -2.1193424609621858e+00
      5.3157126547342370e-01 -4.0739165078167874e+00
      -2.3913953115197430e+00 -8.4798683175381667e-02
      5.5421438646941790e-01 8.8890732370185951e-02
      -1.2223272411889898e+00 1.8059177134250872e+00
      1.5465642295104600e+00 -7.3329839783934939e-02
      -8.7055136190375815e-01 2.3571978868066767e+00
      1.6684879452720472e-01 -6.6517029345381329e-01
      1.0204559358974155e-01 -1.9165163411223365e+00
      -7.3447008551142290e-01 -2.5745106694563585e-01
      -1.5820277999413581e+00 -6.5937070230204606e-02
      1.4953434615389705e-01 -1.7903878855850288e+00
      -1.4571725250709171e+00 8.2024274696867649e-01
      -3.1129647970152463e-01 1.4232303594252769e+00
      -2.6568215841448675e+00 9.0496632234999408e-01
      -3.7373771455219806e-01 7.9218118157317469e-02
      -4.9263771846857646e-01 -1.9383999403059673e+00
      1.6022490725873587e-01 -5.8321215577324992e-01
      5.8467966594790222e-01 -4.7451094623171869e-01
      4.5832457552178607e-01 -8.1077149668442661e-01
      1.5874823882678490e+00 1.1480967683421869e-01
      -4.4386391656227053e-01 -4.0693161467658795e-01
      2.1360096935124355e+00 1.3923025912927236e+00
      -7.7187703583974476e-01 -1.1885956244817822e-01
      6.3299857193934694e-01 4.5109336038883778e-02
      2.5568554816187811e-01 -8.5724323992709600e-02
      1.4893136055664704e+00 -1.0295484934608026e+00
      -1.5729616074044364e+00 -3.1180656172564242e-01
      7.9449435525057832e-01 -4.4195009256388973e-01
      -1.2198506466314560e-01 -1.6759451500105951e+00
      -1.5341846926412641e+00 1.9476106783570579e+00
      1.2290028850663341e+00 -4.5549403848634334e-01
      -3.9170562592674818e-01 -6.4044442394952572e-01
      -2.7072141424327334e-01 -8.5691864548366936e-01
      2.6508860640017157e-01 -2.0555248597453269e-02
      7.8862867956074845e-01 1.1195714457996577e+00
      -5.9557044533532588e-01 -6.1634265301403497e+00
      4.2908419882749488e-01 3.2799347771142853e+00
      -8.7575509024302112e-01 2.5125936521711981e-02
      -8.5219296092590346e-01 4.1568838044262474e-01
      -1.9326537182600265e-01 5.4105407819093655e-02
      -7.1953420581442462e-01 -1.3361693824373948e+00
      3.2683614052448344e-02 3.2296597285413120e-01
      2.2537480281805228e-01 1.8312559483973285e+00
      -1.4280668067256677e+00 -3.9984480821796697e-01
      1.0395490367800302e-01 8.2010343351493042e-02
      1.2311382885114799e+00 -6.5331485986619187e-01
      5.2968635779834861e-01 -4.2017819761054970e-01
      3.3948722388122117e+00 1.0761758308883012e+00
      2.5776313794205435e-01 -1.0115345915020000e+00
      2.3947134385618932e-01 -1.1734411155418850e-02
      -1.6921294818565340e+00 -2.9289761310708451e-01
      -1.1421432778104310e+00 5.9098774792656972e-01
      -1.4607124506251632e+00 1.1312045176382211e+00
      -7.4386053936174665e+00 -3.5554689158775593e-01
      1.9642672500111042e+00 -3.1785680635820626e+00
      -3.0117694850286472e+00 3.8045074489492381e-01
      3.4057174021154566e+00 -1.8132213721544954e+00
      1.9583305008100935e+00 -1.0849135250233841e+00
      1.7367757684174678e-01 -4.4353434156002365e+00
      1.9832575952227727e+00 4.1243269242131414e-01
      9.1459696884290131e-01 2.9104330005445997e+00
      -3.7640945295676400e+00 1.8481712565952869e-02
      3.7124040042949530e-01 7.6740373529682548e-01
      4.4244732234521722e-01 -2.1992542033136293e+00
      1.3555542841384218e+00 1.6599634875037030e+00
      -2.3087370462784964e+00 -2.9112456287114621e+00
      1.4037031393884405e+00 -1.6711437201578918e+00
      5.4326995726733482e+00 3.3231235936162555e+00
      9.0035119882898951e-01 -3.3399033822186208e+00
      -2.9958355834437359e-02 -1.7704575788795989e+00
      -4.8094008984747633e-01</_>
    <_>
      3.3843783794851090e-01 5.1246941988700256e-01
      -2.8572183269247022e-02 1.4808492121322597e-01
      6.4146220236997142e-01 -1.5692094446174618e+00
      -1.5946458123167792e-01 -2.7886526453370704e+00
      -3.9265043700032121e+00 3.4787398646508381e+00
      3.1583345044276703e+00 5.8130524689014595e-01
      7.8845695134520888e-01 -3.9719505530064425e-01
      -1.8221487641846448e+00 1.2266624566010084e-01
      3.5204716235131235e+00 -3.8420950717633682e+00
      -1.7861412168074515e+00 -1.3286668520740390e+00
      1.3832459468409193e+00 -7.9435011151768031e-01
      1.2283045665835244e+00 -6.9120338492359137e+00
      1.9468994709505307e+00 4.4683943660839676e+00
      1.5248084511630013e+00 -1.4005758759174567e+00
      -2.7159899792886635e+00 -1.5216080774819118e+00
      1.5546681928691151e+00 -4.7109662003396868e-01
      2.6595069471291111e+00 4.9562490573922524e-01
      -1.2778371297505591e+00 3.6237739601733748e-01
      2.1489806614804920e+00 -4.0381799890408328e+00
      1.0520972978340108e+00 5.5789287259035025e-01
      3.4611678828837547e+00 -1.9541275369631432e+00
      -4.9522468582717911e+00 -5.7947967115084775e-01
      -7.3665168270700659e-02 2.0946857013411879e+00
      2.0723499836448725e-01 3.2619780409916328e+00
      -2.0138514634274545e+00 1.7374984758705889e-01
      1.9351924174532991e+00 5.6196211448695721e-01
      -2.5444357664319219e+00 3.5192790224597368e+00
      1.2186383555206921e-01 -6.5796600871372191e-01
      -3.0201594521851347e+00 4.2965182611761197e+00
      4.2114696989380720e+00 -3.0573908342500284e+00
      -8.4047131102258621e-01 -2.6721976541375370e-01
      1.4311906099544711e-01 -3.3587018532811932e+00
      3.0242503585266491e+00 5.0428712642791074e-01
      1.9676327562081566e-01 1.1837013839999426e+00
      -3.8215944144253968e+00 1.4853419104384782e+00
      -1.5653542132164431e+00 5.3805954690469682e-01
      3.3711873348060486e+00 -2.1924288660752711e+00
      8.0095219913056259e-01 1.2264387102072105e+00
      3.7079419693229698e-01 2.1577462985153559e+00
      2.8694885103410743e+00 2.3043483505973104e+00
      1.9723962509324804e+00 1.9589274484235364e+00
      2.9766631821709666e+00 1.9776736342340835e+00
      -3.5839776690524299e+00 -2.2447056477296701e-01
      1.7541385823220914e+00 2.5210325012019621e+00
      1.2888350980762318e+00 7.1649026194334520e-01
      -1.7932340804279576e+00 3.2916730971436263e+00
      -3.1471668971603171e+00 -1.3682754442156566e+00
      -5.3008738462324206e-02 -3.0792931100865253e-02
      -5.1966633931557660e-01 1.5848122851469502e+00
      4.2598949024695196e+00 2.4772769042213478e+00
      -4.5267642441388221e+00 1.7763722100554509e+00
      -1.3345485122924492e+00 5.3595342669270928e-02
      7.8317420208848543e-01 -5.1683901897108671e+00
      3.6820717293315632e+00 3.2835092065952580e-02
      1.3639830404412274e+00 -1.7870782900499709e+00
      4.5371211295157403e+00 -2.6445003448633502e+00
      -1.9500405997816246e+00 1.0250732750907912e+00
      -1.5419018678415661e+00 1.1467536307219719e-02
      3.0577589849537192e+00 3.7784213485426590e+00
      1.6081098048824638e+00 2.5210775012735978e+00
      3.0350050236535688e+00 -2.7572603395001805e+00
      -1.2335450199330298e+00 2.7002396577893006e+00
      -2.6781611461571448e+00 1.3437661696495873e+00
      2.1593624411238357e-01 3.0398735329786644e+00
      4.0101098448111596e+00 -1.2468542289326581e+00
      -7.6556110511949305e-01 -2.6819685484392681e+00
      -2.1203603449416804e+00 3.4432762362030158e+00
      4.5867925606069149e-01 4.2425060724786973e-01
      -4.0734222389456960e+00 6.0977248238704851e-01
      4.7994901550902034e+00 -3.0085659178391131e+00
      -2.5535498891696675e+00 2.3226988944595641e+00
      2.6231730012557222e+00 3.9858292133488432e-01
      2.4525077670776957e-01 -2.0782836408364926e+00
      -2.2176238063349221e+00 -3.1788512964208544e+00
      4.9014939025847304e-01 3.4253118217689433e+00
      7.1532540722665294e-02 1.4732867631792721e+00
      1.3236612966911050e+00 4.9677724752768876e-01
      1.4348006728635567e+00 -1.9743005053557583e+00
      -1.7597740105085982e+00 -8.5342405448650138e-01
      1.2145381541558722e+00 2.0675218946554574e+00
      -2.4335320810484795e+00 8.8408832669050058e-02
      2.1404534492300584e+00 3.8770415278396513e+00
      -2.1563159865094832e+00 -7.4399045660874175e-01
      -2.2635303069873847e+00 2.3082673635530426e+00
      3.4865643408970466e+00 -3.9090357075392084e+00
      -5.8636148801061172e-01 -1.4359936138918092e+00
      1.6682952467758656e+00 7.0116112216728116e-02
      5.2151174165848901e-01 3.0526528364775039e+00
      -3.9260539792837710e+00 2.4226280417802468e+00
      5.2816732675416500e-01 -3.2191040375127095e-01
      -3.0261640505268828e+00 1.4202626254475201e+00
      -1.8508221744133353e+00 -1.0683431792654219e+00
      -2.4999091296391138e+00 3.8461321848804162e+00
      -5.2648126587502118e+00 4.5510378218708718e+00
      1.0795794947918871e+00 7.0528668278242046e-01
      1.1239147458252783e+00 -3.8953174657519263e-01
      1.5128229133903337e+00 -1.3648776235750606e-02
      1.5182407381502532e+00 6.0177973020668041e-01
      -3.6340441862088877e+00 -3.9612633523466805e+00
      -3.0792415389994101e+00 -4.4056011791464229e+00
      -2.2763629807481416e+00 -2.6503962258762428e+00
      -1.9124399683727593e+00 -2.9497744124334964e+00
      2.1400296145228119e+00 -4.0113287335223342e+00
      2.4344047427524536e+00 -2.9323915349356557e+00
      -1.0318876030936863e+00 -1.4632057082631758e+00
      4.8696909965284805e+00 1.6487220808225986e+00
      -3.8207167512828160e+00 1.5069968623593222e+00
      -2.4265128165334879e-01 -1.5799630449333084e+00
      -2.6791313941074617e+00 1.8169149415801413e+00
      4.5714077075519738e-01 -1.6092840221555740e-01
      1.1900669211844628e+00 2.4669544885024113e+00
      -1.1289036092815406e-01 3.0173464137708783e+00
      -2.7465281577063108e+00 -1.1167776401711400e+00
      1.1670957252204948e+00 -1.1687302836295534e+00
      1.2233797135854083e+00 1.4060810103475679e-01
      2.2610535483962320e+00 3.2827172806033711e+00
      3.8498085434184004e+00 -2.5727773257775499e-01
      1.3178818892462387e+00 -3.3901878510705719e-01
      -2.9787500382460799e+00 -2.1072697327888199e+00
      -8.3573804852534028e-01 -1.0211713899573106e-03
      1.9536059408692785e-01 1.2436981431941561e+00
      -6.4349618153675425e-01 4.3725162275568650e+00
      -9.2752710600394461e-01 -4.1570855422607034e+00
      -4.7454633691609596e+00 -4.0581090338283987e+00
      -5.3671652334058688e+00 -3.7588863000205297e+00
      -4.2201594934111863e+00 -2.5542252921987929e+00</_></weights></facial_ann>
</opencv_storage>
